digraph Tree {
node [shape=box, fontname="helvetica"] ;
edge [fontname="helvetica"] ;
0 [label="X[37] <= 250.5\ngini = 0.496\nsamples = 2121\nvalue = [960, 1160, 1]"] ;
1 [label="X[26] <= 247.5\ngini = 0.496\nsamples = 2116\nvalue = [955, 1160, 1]"] ;
0 -> 1 [labeldistance=2.5, labelangle=45, headlabel="True"] ;
2 [label="X[34] <= 225.0\ngini = 0.496\nsamples = 2100\nvalue = [952, 1147, 1]"] ;
1 -> 2 ;
3 [label="X[34] <= 204.5\ngini = 0.496\nsamples = 2075\nvalue = [934, 1140, 1]"] ;
2 -> 3 ;
4 [label="X[9] <= 212.0\ngini = 0.496\nsamples = 2064\nvalue = [933, 1130, 1]"] ;
3 -> 4 ;
5 [label="X[29] <= 201.0\ngini = 0.495\nsamples = 2037\nvalue = [914, 1122, 1]"] ;
4 -> 5 ;
6 [label="X[12] <= 239.5\ngini = 0.496\nsamples = 2021\nvalue = [913, 1107, 1]"] ;
5 -> 6 ;
7 [label="X[20] <= 148.0\ngini = 0.496\nsamples = 2016\nvalue = [908, 1107, 1]"] ;
6 -> 7 ;
8 [label="X[22] <= 151.0\ngini = 0.496\nsamples = 1988\nvalue = [902, 1085, 1]"] ;
7 -> 8 ;
9 [label="X[18] <= 109.0\ngini = 0.495\nsamples = 1960\nvalue = [880, 1079, 1]"] ;
8 -> 9 ;
10 [label="X[10] <= 122.5\ngini = 0.496\nsamples = 1918\nvalue = [868, 1049, 1]"] ;
9 -> 10 ;
11 [label="X[29] <= 76.5\ngini = 0.496\nsamples = 1911\nvalue = [861, 1049, 1]"] ;
10 -> 11 ;
12 [label="X[36] <= 64.5\ngini = 0.494\nsamples = 1825\nvalue = [811, 1013, 1]"] ;
11 -> 12 ;
13 [label="X[30] <= 66.0\ngini = 0.496\nsamples = 1747\nvalue = [788, 958, 1]"] ;
12 -> 13 ;
14 [label="X[29] <= 66.5\ngini = 0.495\nsamples = 1707\nvalue = [762, 944, 1]"] ;
13 -> 14 ;
15 [label="X[26] <= 82.0\ngini = 0.495\nsamples = 1700\nvalue = [762, 937, 1]"] ;
14 -> 15 ;
16 [label="X[21] <= 75.0\ngini = 0.495\nsamples = 1690\nvalue = [754, 935, 1]"] ;
15 -> 16 ;
17 [label="X[10] <= 96.0\ngini = 0.495\nsamples = 1685\nvalue = [749, 935, 1]"] ;
16 -> 17 ;
18 [label="X[18] <= 76.5\ngini = 0.495\nsamples = 1673\nvalue = [748, 924, 1]"] ;
17 -> 18 ;
19 [label="X[27] <= 67.5\ngini = 0.495\nsamples = 1667\nvalue = [742, 924, 1]"] ;
18 -> 19 ;
20 [label="X[34] <= 74.5\ngini = 0.495\nsamples = 1656\nvalue = [742, 913, 1]"] ;
19 -> 20 ;
21 [label="X[9] <= 85.5\ngini = 0.496\nsamples = 1647\nvalue = [742, 904, 1]"] ;
20 -> 21 ;
22 [label="X[15] <= 16.5\ngini = 0.495\nsamples = 1640\nvalue = [736, 903, 1]"] ;
21 -> 22 ;
23 [label="X[32] <= 30.5\ngini = 0.5\nsamples = 797\nvalue = [378, 418, 1]"] ;
22 -> 23 ;
24 [label="X[7] <= 12.5\ngini = 0.495\nsamples = 703\nvalue = [318, 385, 0]"] ;
23 -> 24 ;
25 [label="X[8] <= 19.5\ngini = 0.491\nsamples = 612\nvalue = [264, 348, 0]"] ;
24 -> 25 ;
26 [label="X[0] <= 22.5\ngini = 0.495\nsamples = 550\nvalue = [247, 303, 0]"] ;
25 -> 26 ;
27 [label="X[26] <= 25.0\ngini = 0.493\nsamples = 539\nvalue = [238, 301, 0]"] ;
26 -> 27 ;
28 [label="X[25] <= 19.5\ngini = 0.492\nsamples = 533\nvalue = [232, 301, 0]"] ;
27 -> 28 ;
29 [label="X[38] <= 22.5\ngini = 0.493\nsamples = 526\nvalue = [232, 294, 0]"] ;
28 -> 29 ;
30 [label="X[23] <= 14.5\ngini = 0.491\nsamples = 508\nvalue = [219, 289, 0]"] ;
29 -> 30 ;
31 [label="X[15] <= 12.5\ngini = 0.493\nsamples = 494\nvalue = [217, 277, 0]"] ;
30 -> 31 ;
32 [label="X[22] <= 6.5\ngini = 0.49\nsamples = 485\nvalue = [208, 277, 0]"] ;
31 -> 32 ;
33 [label="X[1] <= 0.5\ngini = 0.495\nsamples = 414\nvalue = [187, 227, 0]"] ;
32 -> 33 ;
34 [label="X[20] <= 0.5\ngini = 0.5\nsamples = 160\nvalue = [82, 78, 0]"] ;
33 -> 34 ;
35 [label="X[38] <= 12.5\ngini = 0.498\nsamples = 136\nvalue = [64, 72, 0]"] ;
34 -> 35 ;
36 [label="X[3] <= 1.5\ngini = 0.5\nsamples = 132\nvalue = [64, 68, 0]"] ;
35 -> 36 ;
37 [label="X[6] <= 2.5\ngini = 0.5\nsamples = 129\nvalue = [64, 65, 0]"] ;
36 -> 37 ;
38 [label="X[24] <= 1.5\ngini = 0.499\nsamples = 126\nvalue = [61, 65, 0]"] ;
37 -> 38 ;
39 [label="X[31] <= 7.5\ngini = 0.497\nsamples = 115\nvalue = [53, 62, 0]"] ;
38 -> 39 ;
40 [label="X[7] <= 3.5\ngini = 0.495\nsamples = 113\nvalue = [51, 62, 0]"] ;
39 -> 40 ;
41 [label="X[37] <= 0.5\ngini = 0.497\nsamples = 110\nvalue = [51, 59, 0]"] ;
40 -> 41 ;
42 [label="X[15] <= 0.5\ngini = 0.5\nsamples = 98\nvalue = [48, 50, 0]"] ;
41 -> 42 ;
43 [label="X[31] <= 0.5\ngini = 0.499\nsamples = 89\nvalue = [46, 43, 0]"] ;
42 -> 43 ;
44 [label="X[32] <= 0.5\ngini = 0.5\nsamples = 86\nvalue = [43, 43, 0]"] ;
43 -> 44 ;
45 [label="X[16] <= 0.5\ngini = 0.498\nsamples = 75\nvalue = [35, 40, 0]"] ;
44 -> 45 ;
46 [label="X[0] <= 0.5\ngini = 0.5\nsamples = 72\nvalue = [35, 37, 0]"] ;
45 -> 46 ;
47 [label="X[9] <= 0.5\ngini = 0.497\nsamples = 69\nvalue = [32, 37, 0]"] ;
46 -> 47 ;
48 [label="X[29] <= 0.5\ngini = 0.495\nsamples = 67\nvalue = [30, 37, 0]"] ;
47 -> 48 ;
49 [label="X[11] <= 0.5\ngini = 0.493\nsamples = 66\nvalue = [29, 37, 0]"] ;
48 -> 49 ;
50 [label="X[5] <= 0.5\ngini = 0.49\nsamples = 65\nvalue = [28, 37, 0]"] ;
49 -> 50 ;
51 [label="X[6] <= 0.5\ngini = 0.492\nsamples = 64\nvalue = [28, 36, 0]"] ;
50 -> 51 ;
52 [label="X[7] <= 0.5\ngini = 0.49\nsamples = 63\nvalue = [27, 36, 0]"] ;
51 -> 52 ;
53 [label="X[34] <= 1.5\ngini = 0.493\nsamples = 61\nvalue = [27, 34, 0]"] ;
52 -> 53 ;
54 [label="X[39] <= 0.5\ngini = 0.495\nsamples = 60\nvalue = [27, 33, 0]"] ;
53 -> 54 ;
55 [label="gini = 0.496\nsamples = 57\nvalue = [26, 31, 0]"] ;
54 -> 55 ;
56 [label="X[38] <= 0.5\ngini = 0.444\nsamples = 3\nvalue = [1, 2, 0]"] ;
54 -> 56 ;
57 [label="gini = 0.0\nsamples = 1\nvalue = [0, 1, 0]"] ;
56 -> 57 ;
58 [label="gini = 0.5\nsamples = 2\nvalue = [1, 1, 0]"] ;
56 -> 58 ;
59 [label="gini = 0.0\nsamples = 1\nvalue = [0, 1, 0]"] ;
53 -> 59 ;
60 [label="gini = 0.0\nsamples = 2\nvalue = [0, 2, 0]"] ;
52 -> 60 ;
61 [label="gini = 0.0\nsamples = 1\nvalue = [1, 0, 0]"] ;
51 -> 61 ;
62 [label="gini = 0.0\nsamples = 1\nvalue = [0, 1, 0]"] ;
50 -> 62 ;
63 [label="gini = 0.0\nsamples = 1\nvalue = [1, 0, 0]"] ;
49 -> 63 ;
64 [label="gini = 0.0\nsamples = 1\nvalue = [1, 0, 0]"] ;
48 -> 64 ;
65 [label="gini = 0.0\nsamples = 2\nvalue = [2, 0, 0]"] ;
47 -> 65 ;
66 [label="gini = 0.0\nsamples = 3\nvalue = [3, 0, 0]"] ;
46 -> 66 ;
67 [label="gini = 0.0\nsamples = 3\nvalue = [0, 3, 0]"] ;
45 -> 67 ;
68 [label="X[34] <= 3.0\ngini = 0.397\nsamples = 11\nvalue = [8, 3, 0]"] ;
44 -> 68 ;
69 [label="X[34] <= 0.5\ngini = 0.32\nsamples = 10\nvalue = [8, 2, 0]"] ;
68 -> 69 ;
70 [label="X[33] <= 1.5\ngini = 0.48\nsamples = 5\nvalue = [3, 2, 0]"] ;
69 -> 70 ;
71 [label="X[26] <= 0.5\ngini = 0.375\nsamples = 4\nvalue = [3, 1, 0]"] ;
70 -> 71 ;
72 [label="X[39] <= 1.0\ngini = 0.444\nsamples = 3\nvalue = [2, 1, 0]"] ;
71 -> 72 ;
73 [label="X[33] <= 0.5\ngini = 0.5\nsamples = 2\nvalue = [1, 1, 0]"] ;
72 -> 73 ;
74 [label="gini = 0.0\nsamples = 1\nvalue = [0, 1, 0]"] ;
73 -> 74 ;
75 [label="gini = 0.0\nsamples = 1\nvalue = [1, 0, 0]"] ;
73 -> 75 ;
76 [label="gini = 0.0\nsamples = 1\nvalue = [1, 0, 0]"] ;
72 -> 76 ;
77 [label="gini = 0.0\nsamples = 1\nvalue = [1, 0, 0]"] ;
71 -> 77 ;
78 [label="gini = 0.0\nsamples = 1\nvalue = [0, 1, 0]"] ;
70 -> 78 ;
79 [label="gini = 0.0\nsamples = 5\nvalue = [5, 0, 0]"] ;
69 -> 79 ;
80 [label="gini = 0.0\nsamples = 1\nvalue = [0, 1, 0]"] ;
68 -> 80 ;
81 [label="gini = 0.0\nsamples = 3\nvalue = [3, 0, 0]"] ;
43 -> 81 ;
82 [label="X[15] <= 3.5\ngini = 0.346\nsamples = 9\nvalue = [2, 7, 0]"] ;
42 -> 82 ;
83 [label="X[4] <= 0.5\ngini = 0.219\nsamples = 8\nvalue = [1, 7, 0]"] ;
82 -> 83 ;
84 [label="gini = 0.0\nsamples = 7\nvalue = [0, 7, 0]"] ;
83 -> 84 ;
85 [label="gini = 0.0\nsamples = 1\nvalue = [1, 0, 0]"] ;
83 -> 85 ;
86 [label="gini = 0.0\nsamples = 1\nvalue = [1, 0, 0]"] ;
82 -> 86 ;
87 [label="X[36] <= 3.5\ngini = 0.375\nsamples = 12\nvalue = [3, 9, 0]"] ;
41 -> 87 ;
88 [label="X[6] <= 0.5\ngini = 0.198\nsamples = 9\nvalue = [1, 8, 0]"] ;
87 -> 88 ;
89 [label="gini = 0.0\nsamples = 7\nvalue = [0, 7, 0]"] ;
88 -> 89 ;
90 [label="X[30] <= 1.0\ngini = 0.5\nsamples = 2\nvalue = [1, 1, 0]"] ;
88 -> 90 ;
91 [label="gini = 0.0\nsamples = 1\nvalue = [1, 0, 0]"] ;
90 -> 91 ;
92 [label="gini = 0.0\nsamples = 1\nvalue = [0, 1, 0]"] ;
90 -> 92 ;
93 [label="X[32] <= 1.0\ngini = 0.444\nsamples = 3\nvalue = [2, 1, 0]"] ;
87 -> 93 ;
94 [label="gini = 0.0\nsamples = 2\nvalue = [2, 0, 0]"] ;
93 -> 94 ;
95 [label="gini = 0.0\nsamples = 1\nvalue = [0, 1, 0]"] ;
93 -> 95 ;
96 [label="gini = 0.0\nsamples = 3\nvalue = [0, 3, 0]"] ;
40 -> 96 ;
97 [label="gini = 0.0\nsamples = 2\nvalue = [2, 0, 0]"] ;
39 -> 97 ;
98 [label="X[38] <= 1.5\ngini = 0.397\nsamples = 11\nvalue = [8, 3, 0]"] ;
38 -> 98 ;
99 [label="X[24] <= 18.0\ngini = 0.198\nsamples = 9\nvalue = [8, 1, 0]"] ;
98 -> 99 ;
100 [label="gini = 0.0\nsamples = 8\nvalue = [8, 0, 0]"] ;
99 -> 100 ;
101 [label="gini = 0.0\nsamples = 1\nvalue = [0, 1, 0]"] ;
99 -> 101 ;
102 [label="gini = 0.0\nsamples = 2\nvalue = [0, 2, 0]"] ;
98 -> 102 ;
103 [label="gini = 0.0\nsamples = 3\nvalue = [3, 0, 0]"] ;
37 -> 103 ;
104 [label="gini = 0.0\nsamples = 3\nvalue = [0, 3, 0]"] ;
36 -> 104 ;
105 [label="gini = 0.0\nsamples = 4\nvalue = [0, 4, 0]"] ;
35 -> 105 ;
106 [label="X[2] <= 1.5\ngini = 0.375\nsamples = 24\nvalue = [18, 6, 0]"] ;
34 -> 106 ;
107 [label="X[28] <= 0.5\ngini = 0.245\nsamples = 21\nvalue = [18, 3, 0]"] ;
106 -> 107 ;
108 [label="X[6] <= 0.5\ngini = 0.48\nsamples = 5\nvalue = [2, 3, 0]"] ;
107 -> 108 ;
109 [label="X[19] <= 3.0\ngini = 0.444\nsamples = 3\nvalue = [2, 1, 0]"] ;
108 -> 109 ;
110 [label="gini = 0.0\nsamples = 2\nvalue = [2, 0, 0]"] ;
109 -> 110 ;
111 [label="gini = 0.0\nsamples = 1\nvalue = [0, 1, 0]"] ;
109 -> 111 ;
112 [label="gini = 0.0\nsamples = 2\nvalue = [0, 2, 0]"] ;
108 -> 112 ;
113 [label="gini = 0.0\nsamples = 16\nvalue = [16, 0, 0]"] ;
107 -> 113 ;
114 [label="gini = 0.0\nsamples = 3\nvalue = [0, 3, 0]"] ;
106 -> 114 ;
115 [label="X[1] <= 1.5\ngini = 0.485\nsamples = 254\nvalue = [105, 149, 0]"] ;
33 -> 115 ;
116 [label="X[36] <= 0.5\ngini = 0.355\nsamples = 52\nvalue = [12, 40, 0]"] ;
115 -> 116 ;
117 [label="X[22] <= 1.5\ngini = 0.077\nsamples = 25\nvalue = [1, 24, 0]"] ;
116 -> 117 ;
118 [label="gini = 0.0\nsamples = 22\nvalue = [0, 22, 0]"] ;
117 -> 118 ;
119 [label="X[14] <= 3.0\ngini = 0.444\nsamples = 3\nvalue = [1, 2, 0]"] ;
117 -> 119 ;
120 [label="gini = 0.0\nsamples = 1\nvalue = [1, 0, 0]"] ;
119 -> 120 ;
121 [label="gini = 0.0\nsamples = 2\nvalue = [0, 2, 0]"] ;
119 -> 121 ;
122 [label="X[11] <= 0.5\ngini = 0.483\nsamples = 27\nvalue = [11, 16, 0]"] ;
116 -> 122 ;
123 [label="X[28] <= 1.5\ngini = 0.245\nsamples = 7\nvalue = [6, 1, 0]"] ;
122 -> 123 ;
124 [label="gini = 0.0\nsamples = 6\nvalue = [6, 0, 0]"] ;
123 -> 124 ;
125 [label="gini = 0.0\nsamples = 1\nvalue = [0, 1, 0]"] ;
123 -> 125 ;
126 [label="X[36] <= 6.0\ngini = 0.375\nsamples = 20\nvalue = [5, 15, 0]"] ;
122 -> 126 ;
127 [label="X[25] <= 1.5\ngini = 0.278\nsamples = 18\nvalue = [3, 15, 0]"] ;
126 -> 127 ;
128 [label="gini = 0.0\nsamples = 11\nvalue = [0, 11, 0]"] ;
127 -> 128 ;
129 [label="X[14] <= 1.5\ngini = 0.49\nsamples = 7\nvalue = [3, 4, 0]"] ;
127 -> 129 ;
130 [label="gini = 0.0\nsamples = 4\nvalue = [0, 4, 0]"] ;
129 -> 130 ;
131 [label="gini = 0.0\nsamples = 3\nvalue = [3, 0, 0]"] ;
129 -> 131 ;
132 [label="gini = 0.0\nsamples = 2\nvalue = [2, 0, 0]"] ;
126 -> 132 ;
133 [label="X[4] <= 1.5\ngini = 0.497\nsamples = 202\nvalue = [93, 109, 0]"] ;
115 -> 133 ;
134 [label="X[34] <= 0.5\ngini = 0.459\nsamples = 42\nvalue = [27, 15, 0]"] ;
133 -> 134 ;
135 [label="X[0] <= 3.5\ngini = 0.444\nsamples = 9\nvalue = [3, 6, 0]"] ;
134 -> 135 ;
136 [label="gini = 0.0\nsamples = 3\nvalue = [3, 0, 0]"] ;
135 -> 136 ;
137 [label="gini = 0.0\nsamples = 6\nvalue = [0, 6, 0]"] ;
135 -> 137 ;
138 [label="X[11] <= 2.5\ngini = 0.397\nsamples = 33\nvalue = [24, 9, 0]"] ;
134 -> 138 ;
139 [label="X[26] <= 7.5\ngini = 0.219\nsamples = 24\nvalue = [21, 3, 0]"] ;
138 -> 139 ;
140 [label="X[33] <= 1.5\ngini = 0.159\nsamples = 23\nvalue = [21, 2, 0]"] ;
139 -> 140 ;
141 [label="X[25] <= 2.5\ngini = 0.375\nsamples = 8\nvalue = [6, 2, 0]"] ;
140 -> 141 ;
142 [label="X[32] <= 1.5\ngini = 0.245\nsamples = 7\nvalue = [6, 1, 0]"] ;
141 -> 142 ;
143 [label="gini = 0.0\nsamples = 5\nvalue = [5, 0, 0]"] ;
142 -> 143 ;
144 [label="X[21] <= 1.5\ngini = 0.5\nsamples = 2\nvalue = [1, 1, 0]"] ;
142 -> 144 ;
145 [label="gini = 0.0\nsamples = 1\nvalue = [0, 1, 0]"] ;
144 -> 145 ;
146 [label="gini = 0.0\nsamples = 1\nvalue = [1, 0, 0]"] ;
144 -> 146 ;
147 [label="gini = 0.0\nsamples = 1\nvalue = [0, 1, 0]"] ;
141 -> 147 ;
148 [label="gini = 0.0\nsamples = 15\nvalue = [15, 0, 0]"] ;
140 -> 148 ;
149 [label="gini = 0.0\nsamples = 1\nvalue = [0, 1, 0]"] ;
139 -> 149 ;
150 [label="X[11] <= 3.5\ngini = 0.444\nsamples = 9\nvalue = [3, 6, 0]"] ;
138 -> 150 ;
151 [label="gini = 0.0\nsamples = 5\nvalue = [0, 5, 0]"] ;
150 -> 151 ;
152 [label="X[18] <= 5.5\ngini = 0.375\nsamples = 4\nvalue = [3, 1, 0]"] ;
150 -> 152 ;
153 [label="gini = 0.0\nsamples = 1\nvalue = [0, 1, 0]"] ;
152 -> 153 ;
154 [label="gini = 0.0\nsamples = 3\nvalue = [3, 0, 0]"] ;
152 -> 154 ;
155 [label="X[24] <= 19.5\ngini = 0.485\nsamples = 160\nvalue = [66, 94, 0]"] ;
133 -> 155 ;
156 [label="X[32] <= 9.5\ngini = 0.479\nsamples = 156\nvalue = [62, 94, 0]"] ;
155 -> 156 ;
157 [label="X[37] <= 4.5\ngini = 0.493\nsamples = 122\nvalue = [54, 68, 0]"] ;
156 -> 157 ;
158 [label="X[8] <= 7.5\ngini = 0.5\nsamples = 102\nvalue = [50, 52, 0]"] ;
157 -> 158 ;
159 [label="X[25] <= 0.5\ngini = 0.482\nsamples = 69\nvalue = [28, 41, 0]"] ;
158 -> 159 ;
160 [label="X[14] <= 1.5\ngini = 0.426\nsamples = 13\nvalue = [9, 4, 0]"] ;
159 -> 160 ;
161 [label="X[14] <= 0.5\ngini = 0.444\nsamples = 6\nvalue = [2, 4, 0]"] ;
160 -> 161 ;
162 [label="gini = 0.0\nsamples = 2\nvalue = [2, 0, 0]"] ;
161 -> 162 ;
163 [label="gini = 0.0\nsamples = 4\nvalue = [0, 4, 0]"] ;
161 -> 163 ;
164 [label="gini = 0.0\nsamples = 7\nvalue = [7, 0, 0]"] ;
160 -> 164 ;
165 [label="X[11] <= 4.5\ngini = 0.448\nsamples = 56\nvalue = [19, 37, 0]"] ;
159 -> 165 ;
166 [label="X[14] <= 4.5\ngini = 0.494\nsamples = 38\nvalue = [17, 21, 0]"] ;
165 -> 166 ;
167 [label="X[29] <= 1.5\ngini = 0.469\nsamples = 32\nvalue = [12, 20, 0]"] ;
166 -> 167 ;
168 [label="X[25] <= 2.5\ngini = 0.49\nsamples = 14\nvalue = [8, 6, 0]"] ;
167 -> 168 ;
169 [label="X[5] <= 2.5\ngini = 0.375\nsamples = 8\nvalue = [2, 6, 0]"] ;
168 -> 169 ;
170 [label="gini = 0.0\nsamples = 5\nvalue = [0, 5, 0]"] ;
169 -> 170 ;
171 [label="X[26] <= 0.5\ngini = 0.444\nsamples = 3\nvalue = [2, 1, 0]"] ;
169 -> 171 ;
172 [label="gini = 0.0\nsamples = 1\nvalue = [0, 1, 0]"] ;
171 -> 172 ;
173 [label="gini = 0.0\nsamples = 2\nvalue = [2, 0, 0]"] ;
171 -> 173 ;
174 [label="gini = 0.0\nsamples = 6\nvalue = [6, 0, 0]"] ;
168 -> 174 ;
175 [label="X[18] <= 1.5\ngini = 0.346\nsamples = 18\nvalue = [4, 14, 0]"] ;
167 -> 175 ;
176 [label="gini = 0.0\nsamples = 2\nvalue = [2, 0, 0]"] ;
175 -> 176 ;
177 [label="X[38] <= 5.5\ngini = 0.219\nsamples = 16\nvalue = [2, 14, 0]"] ;
175 -> 177 ;
178 [label="X[19] <= 4.5\ngini = 0.124\nsamples = 15\nvalue = [1, 14, 0]"] ;
177 -> 178 ;
179 [label="gini = 0.0\nsamples = 14\nvalue = [0, 14, 0]"] ;
178 -> 179 ;
180 [label="gini = 0.0\nsamples = 1\nvalue = [1, 0, 0]"] ;
178 -> 180 ;
181 [label="gini = 0.0\nsamples = 1\nvalue = [1, 0, 0]"] ;
177 -> 181 ;
182 [label="X[5] <= 5.5\ngini = 0.278\nsamples = 6\nvalue = [5, 1, 0]"] ;
166 -> 182 ;
183 [label="X[13] <= 4.5\ngini = 0.5\nsamples = 2\nvalue = [1, 1, 0]"] ;
182 -> 183 ;
184 [label="gini = 0.0\nsamples = 1\nvalue = [0, 1, 0]"] ;
183 -> 184 ;
185 [label="gini = 0.0\nsamples = 1\nvalue = [1, 0, 0]"] ;
183 -> 185 ;
186 [label="gini = 0.0\nsamples = 4\nvalue = [4, 0, 0]"] ;
182 -> 186 ;
187 [label="X[8] <= 6.5\ngini = 0.198\nsamples = 18\nvalue = [2, 16, 0]"] ;
165 -> 187 ;
188 [label="gini = 0.0\nsamples = 13\nvalue = [0, 13, 0]"] ;
187 -> 188 ;
189 [label="X[30] <= 2.5\ngini = 0.48\nsamples = 5\nvalue = [2, 3, 0]"] ;
187 -> 189 ;
190 [label="X[23] <= 2.5\ngini = 0.444\nsamples = 3\nvalue = [2, 1, 0]"] ;
189 -> 190 ;
191 [label="gini = 0.0\nsamples = 1\nvalue = [0, 1, 0]"] ;
190 -> 191 ;
192 [label="gini = 0.0\nsamples = 2\nvalue = [2, 0, 0]"] ;
190 -> 192 ;
193 [label="gini = 0.0\nsamples = 2\nvalue = [0, 2, 0]"] ;
189 -> 193 ;
194 [label="X[30] <= 2.5\ngini = 0.444\nsamples = 33\nvalue = [22, 11, 0]"] ;
158 -> 194 ;
195 [label="X[10] <= 7.5\ngini = 0.499\nsamples = 21\nvalue = [10, 11, 0]"] ;
194 -> 195 ;
196 [label="X[24] <= 7.5\ngini = 0.426\nsamples = 13\nvalue = [9, 4, 0]"] ;
195 -> 196 ;
197 [label="X[25] <= 3.5\ngini = 0.494\nsamples = 9\nvalue = [5, 4, 0]"] ;
196 -> 197 ;
198 [label="gini = 0.0\nsamples = 4\nvalue = [4, 0, 0]"] ;
197 -> 198 ;
199 [label="X[15] <= 2.0\ngini = 0.32\nsamples = 5\nvalue = [1, 4, 0]"] ;
197 -> 199 ;
200 [label="gini = 0.0\nsamples = 4\nvalue = [0, 4, 0]"] ;
199 -> 200 ;
201 [label="gini = 0.0\nsamples = 1\nvalue = [1, 0, 0]"] ;
199 -> 201 ;
202 [label="gini = 0.0\nsamples = 4\nvalue = [4, 0, 0]"] ;
196 -> 202 ;
203 [label="X[21] <= 1.5\ngini = 0.219\nsamples = 8\nvalue = [1, 7, 0]"] ;
195 -> 203 ;
204 [label="X[30] <= 0.5\ngini = 0.5\nsamples = 2\nvalue = [1, 1, 0]"] ;
203 -> 204 ;
205 [label="gini = 0.0\nsamples = 1\nvalue = [0, 1, 0]"] ;
204 -> 205 ;
206 [label="gini = 0.0\nsamples = 1\nvalue = [1, 0, 0]"] ;
204 -> 206 ;
207 [label="gini = 0.0\nsamples = 6\nvalue = [0, 6, 0]"] ;
203 -> 207 ;
208 [label="gini = 0.0\nsamples = 12\nvalue = [12, 0, 0]"] ;
194 -> 208 ;
209 [label="X[1] <= 5.5\ngini = 0.32\nsamples = 20\nvalue = [4, 16, 0]"] ;
157 -> 209 ;
210 [label="X[23] <= 4.5\ngini = 0.494\nsamples = 9\nvalue = [4, 5, 0]"] ;
209 -> 210 ;
211 [label="X[21] <= 2.5\ngini = 0.32\nsamples = 5\nvalue = [4, 1, 0]"] ;
210 -> 211 ;
212 [label="gini = 0.0\nsamples = 1\nvalue = [0, 1, 0]"] ;
211 -> 212 ;
213 [label="gini = 0.0\nsamples = 4\nvalue = [4, 0, 0]"] ;
211 -> 213 ;
214 [label="gini = 0.0\nsamples = 4\nvalue = [0, 4, 0]"] ;
210 -> 214 ;
215 [label="gini = 0.0\nsamples = 11\nvalue = [0, 11, 0]"] ;
209 -> 215 ;
216 [label="X[4] <= 7.5\ngini = 0.36\nsamples = 34\nvalue = [8, 26, 0]"] ;
156 -> 216 ;
217 [label="X[33] <= 7.5\ngini = 0.26\nsamples = 26\nvalue = [4, 22, 0]"] ;
216 -> 217 ;
218 [label="X[12] <= 4.0\ngini = 0.444\nsamples = 3\nvalue = [2, 1, 0]"] ;
217 -> 218 ;
219 [label="gini = 0.0\nsamples = 2\nvalue = [2, 0, 0]"] ;
218 -> 219 ;
220 [label="gini = 0.0\nsamples = 1\nvalue = [0, 1, 0]"] ;
218 -> 220 ;
221 [label="X[27] <= 7.5\ngini = 0.159\nsamples = 23\nvalue = [2, 21, 0]"] ;
217 -> 221 ;
222 [label="gini = 0.0\nsamples = 16\nvalue = [0, 16, 0]"] ;
221 -> 222 ;
223 [label="X[25] <= 10.5\ngini = 0.408\nsamples = 7\nvalue = [2, 5, 0]"] ;
221 -> 223 ;
224 [label="gini = 0.0\nsamples = 2\nvalue = [2, 0, 0]"] ;
223 -> 224 ;
225 [label="gini = 0.0\nsamples = 5\nvalue = [0, 5, 0]"] ;
223 -> 225 ;
226 [label="X[37] <= 4.5\ngini = 0.5\nsamples = 8\nvalue = [4, 4, 0]"] ;
216 -> 226 ;
227 [label="X[4] <= 9.5\ngini = 0.32\nsamples = 5\nvalue = [1, 4, 0]"] ;
226 -> 227 ;
228 [label="gini = 0.0\nsamples = 1\nvalue = [1, 0, 0]"] ;
227 -> 228 ;
229 [label="gini = 0.0\nsamples = 4\nvalue = [0, 4, 0]"] ;
227 -> 229 ;
230 [label="gini = 0.0\nsamples = 3\nvalue = [3, 0, 0]"] ;
226 -> 230 ;
231 [label="gini = 0.0\nsamples = 4\nvalue = [4, 0, 0]"] ;
155 -> 231 ;
232 [label="X[30] <= 10.5\ngini = 0.417\nsamples = 71\nvalue = [21, 50, 0]"] ;
32 -> 232 ;
233 [label="X[3] <= 16.5\ngini = 0.329\nsamples = 53\nvalue = [11, 42, 0]"] ;
232 -> 233 ;
234 [label="X[0] <= 8.5\ngini = 0.273\nsamples = 49\nvalue = [8, 41, 0]"] ;
233 -> 234 ;
235 [label="X[9] <= 8.5\ngini = 0.128\nsamples = 29\nvalue = [2, 27, 0]"] ;
234 -> 235 ;
236 [label="X[33] <= 0.5\ngini = 0.069\nsamples = 28\nvalue = [1, 27, 0]"] ;
235 -> 236 ;
237 [label="X[11] <= 3.5\ngini = 0.444\nsamples = 3\nvalue = [1, 2, 0]"] ;
236 -> 237 ;
238 [label="gini = 0.0\nsamples = 2\nvalue = [0, 2, 0]"] ;
237 -> 238 ;
239 [label="gini = 0.0\nsamples = 1\nvalue = [1, 0, 0]"] ;
237 -> 239 ;
240 [label="gini = 0.0\nsamples = 25\nvalue = [0, 25, 0]"] ;
236 -> 240 ;
241 [label="gini = 0.0\nsamples = 1\nvalue = [1, 0, 0]"] ;
235 -> 241 ;
242 [label="X[26] <= 11.5\ngini = 0.42\nsamples = 20\nvalue = [6, 14, 0]"] ;
234 -> 242 ;
243 [label="X[39] <= 3.5\ngini = 0.48\nsamples = 10\nvalue = [6, 4, 0]"] ;
242 -> 243 ;
244 [label="gini = 0.0\nsamples = 2\nvalue = [0, 2, 0]"] ;
243 -> 244 ;
245 [label="X[8] <= 17.0\ngini = 0.375\nsamples = 8\nvalue = [6, 2, 0]"] ;
243 -> 245 ;
246 [label="X[3] <= 11.5\ngini = 0.245\nsamples = 7\nvalue = [6, 1, 0]"] ;
245 -> 246 ;
247 [label="gini = 0.0\nsamples = 6\nvalue = [6, 0, 0]"] ;
246 -> 247 ;
248 [label="gini = 0.0\nsamples = 1\nvalue = [0, 1, 0]"] ;
246 -> 248 ;
249 [label="gini = 0.0\nsamples = 1\nvalue = [0, 1, 0]"] ;
245 -> 249 ;
250 [label="gini = 0.0\nsamples = 10\nvalue = [0, 10, 0]"] ;
242 -> 250 ;
251 [label="X[24] <= 14.0\ngini = 0.375\nsamples = 4\nvalue = [3, 1, 0]"] ;
233 -> 251 ;
252 [label="gini = 0.0\nsamples = 1\nvalue = [0, 1, 0]"] ;
251 -> 252 ;
253 [label="gini = 0.0\nsamples = 3\nvalue = [3, 0, 0]"] ;
251 -> 253 ;
254 [label="X[20] <= 7.5\ngini = 0.494\nsamples = 18\nvalue = [10, 8, 0]"] ;
232 -> 254 ;
255 [label="X[32] <= 3.5\ngini = 0.408\nsamples = 7\nvalue = [2, 5, 0]"] ;
254 -> 255 ;
256 [label="gini = 0.0\nsamples = 2\nvalue = [2, 0, 0]"] ;
255 -> 256 ;
257 [label="gini = 0.0\nsamples = 5\nvalue = [0, 5, 0]"] ;
255 -> 257 ;
258 [label="X[17] <= 12.5\ngini = 0.397\nsamples = 11\nvalue = [8, 3, 0]"] ;
254 -> 258 ;
259 [label="gini = 0.0\nsamples = 7\nvalue = [7, 0, 0]"] ;
258 -> 259 ;
260 [label="X[21] <= 29.5\ngini = 0.375\nsamples = 4\nvalue = [1, 3, 0]"] ;
258 -> 260 ;
261 [label="gini = 0.0\nsamples = 3\nvalue = [0, 3, 0]"] ;
260 -> 261 ;
262 [label="gini = 0.0\nsamples = 1\nvalue = [1, 0, 0]"] ;
260 -> 262 ;
263 [label="gini = 0.0\nsamples = 9\nvalue = [9, 0, 0]"] ;
31 -> 263 ;
264 [label="X[11] <= 9.5\ngini = 0.245\nsamples = 14\nvalue = [2, 12, 0]"] ;
30 -> 264 ;
265 [label="X[22] <= 1.0\ngini = 0.142\nsamples = 13\nvalue = [1, 12, 0]"] ;
264 -> 265 ;
266 [label="gini = 0.0\nsamples = 1\nvalue = [1, 0, 0]"] ;
265 -> 266 ;
267 [label="gini = 0.0\nsamples = 12\nvalue = [0, 12, 0]"] ;
265 -> 267 ;
268 [label="gini = 0.0\nsamples = 1\nvalue = [1, 0, 0]"] ;
264 -> 268 ;
269 [label="X[34] <= 13.0\ngini = 0.401\nsamples = 18\nvalue = [13, 5, 0]"] ;
29 -> 269 ;
270 [label="gini = 0.0\nsamples = 10\nvalue = [10, 0, 0]"] ;
269 -> 270 ;
271 [label="X[37] <= 29.5\ngini = 0.469\nsamples = 8\nvalue = [3, 5, 0]"] ;
269 -> 271 ;
272 [label="X[12] <= 19.0\ngini = 0.278\nsamples = 6\nvalue = [1, 5, 0]"] ;
271 -> 272 ;
273 [label="gini = 0.0\nsamples = 5\nvalue = [0, 5, 0]"] ;
272 -> 273 ;
274 [label="gini = 0.0\nsamples = 1\nvalue = [1, 0, 0]"] ;
272 -> 274 ;
275 [label="gini = 0.0\nsamples = 2\nvalue = [2, 0, 0]"] ;
271 -> 275 ;
276 [label="gini = 0.0\nsamples = 7\nvalue = [0, 7, 0]"] ;
28 -> 276 ;
277 [label="gini = 0.0\nsamples = 6\nvalue = [6, 0, 0]"] ;
27 -> 277 ;
278 [label="X[10] <= 19.0\ngini = 0.298\nsamples = 11\nvalue = [9, 2, 0]"] ;
26 -> 278 ;
279 [label="gini = 0.0\nsamples = 9\nvalue = [9, 0, 0]"] ;
278 -> 279 ;
280 [label="gini = 0.0\nsamples = 2\nvalue = [0, 2, 0]"] ;
278 -> 280 ;
281 [label="X[1] <= 24.0\ngini = 0.398\nsamples = 62\nvalue = [17, 45, 0]"] ;
25 -> 281 ;
282 [label="X[7] <= 8.5\ngini = 0.191\nsamples = 28\nvalue = [3, 25, 0]"] ;
281 -> 282 ;
283 [label="X[13] <= 14.5\ngini = 0.087\nsamples = 22\nvalue = [1, 21, 0]"] ;
282 -> 283 ;
284 [label="gini = 0.0\nsamples = 19\nvalue = [0, 19, 0]"] ;
283 -> 284 ;
285 [label="X[2] <= 18.0\ngini = 0.444\nsamples = 3\nvalue = [1, 2, 0]"] ;
283 -> 285 ;
286 [label="gini = 0.0\nsamples = 2\nvalue = [0, 2, 0]"] ;
285 -> 286 ;
287 [label="gini = 0.0\nsamples = 1\nvalue = [1, 0, 0]"] ;
285 -> 287 ;
288 [label="X[13] <= 11.5\ngini = 0.444\nsamples = 6\nvalue = [2, 4, 0]"] ;
282 -> 288 ;
289 [label="gini = 0.0\nsamples = 2\nvalue = [2, 0, 0]"] ;
288 -> 289 ;
290 [label="gini = 0.0\nsamples = 4\nvalue = [0, 4, 0]"] ;
288 -> 290 ;
291 [label="X[2] <= 23.5\ngini = 0.484\nsamples = 34\nvalue = [14, 20, 0]"] ;
281 -> 291 ;
292 [label="X[7] <= 4.5\ngini = 0.397\nsamples = 11\nvalue = [8, 3, 0]"] ;
291 -> 292 ;
293 [label="X[35] <= 9.0\ngini = 0.48\nsamples = 5\nvalue = [2, 3, 0]"] ;
292 -> 293 ;
294 [label="gini = 0.0\nsamples = 2\nvalue = [2, 0, 0]"] ;
293 -> 294 ;
295 [label="gini = 0.0\nsamples = 3\nvalue = [0, 3, 0]"] ;
293 -> 295 ;
296 [label="gini = 0.0\nsamples = 6\nvalue = [6, 0, 0]"] ;
292 -> 296 ;
297 [label="X[2] <= 35.5\ngini = 0.386\nsamples = 23\nvalue = [6, 17, 0]"] ;
291 -> 297 ;
298 [label="gini = 0.0\nsamples = 12\nvalue = [0, 12, 0]"] ;
297 -> 298 ;
299 [label="X[25] <= 9.0\ngini = 0.496\nsamples = 11\nvalue = [6, 5, 0]"] ;
297 -> 299 ;
300 [label="gini = 0.0\nsamples = 4\nvalue = [4, 0, 0]"] ;
299 -> 300 ;
301 [label="X[12] <= 16.0\ngini = 0.408\nsamples = 7\nvalue = [2, 5, 0]"] ;
299 -> 301 ;
302 [label="gini = 0.0\nsamples = 4\nvalue = [0, 4, 0]"] ;
301 -> 302 ;
303 [label="X[7] <= 5.0\ngini = 0.444\nsamples = 3\nvalue = [2, 1, 0]"] ;
301 -> 303 ;
304 [label="gini = 0.0\nsamples = 1\nvalue = [0, 1, 0]"] ;
303 -> 304 ;
305 [label="gini = 0.0\nsamples = 2\nvalue = [2, 0, 0]"] ;
303 -> 305 ;
306 [label="X[19] <= 19.5\ngini = 0.483\nsamples = 91\nvalue = [54, 37, 0]"] ;
24 -> 306 ;
307 [label="X[8] <= 16.5\ngini = 0.497\nsamples = 78\nvalue = [42, 36, 0]"] ;
306 -> 307 ;
308 [label="X[17] <= 8.5\ngini = 0.431\nsamples = 51\nvalue = [35, 16, 0]"] ;
307 -> 308 ;
309 [label="X[34] <= 3.5\ngini = 0.49\nsamples = 35\nvalue = [20, 15, 0]"] ;
308 -> 309 ;
310 [label="X[16] <= 0.5\ngini = 0.245\nsamples = 14\nvalue = [12, 2, 0]"] ;
309 -> 310 ;
311 [label="X[23] <= 13.0\ngini = 0.5\nsamples = 4\nvalue = [2, 2, 0]"] ;
310 -> 311 ;
312 [label="gini = 0.0\nsamples = 2\nvalue = [0, 2, 0]"] ;
311 -> 312 ;
313 [label="gini = 0.0\nsamples = 2\nvalue = [2, 0, 0]"] ;
311 -> 313 ;
314 [label="gini = 0.0\nsamples = 10\nvalue = [10, 0, 0]"] ;
310 -> 314 ;
315 [label="X[13] <= 14.5\ngini = 0.472\nsamples = 21\nvalue = [8, 13, 0]"] ;
309 -> 315 ;
316 [label="X[4] <= 12.5\ngini = 0.5\nsamples = 16\nvalue = [8, 8, 0]"] ;
315 -> 316 ;
317 [label="X[39] <= 14.5\ngini = 0.444\nsamples = 12\nvalue = [4, 8, 0]"] ;
316 -> 317 ;
318 [label="gini = 0.0\nsamples = 6\nvalue = [0, 6, 0]"] ;
317 -> 318 ;
319 [label="X[38] <= 19.5\ngini = 0.444\nsamples = 6\nvalue = [4, 2, 0]"] ;
317 -> 319 ;
320 [label="gini = 0.0\nsamples = 4\nvalue = [4, 0, 0]"] ;
319 -> 320 ;
321 [label="gini = 0.0\nsamples = 2\nvalue = [0, 2, 0]"] ;
319 -> 321 ;
322 [label="gini = 0.0\nsamples = 4\nvalue = [4, 0, 0]"] ;
316 -> 322 ;
323 [label="gini = 0.0\nsamples = 5\nvalue = [0, 5, 0]"] ;
315 -> 323 ;
324 [label="X[8] <= 13.5\ngini = 0.117\nsamples = 16\nvalue = [15, 1, 0]"] ;
308 -> 324 ;
325 [label="gini = 0.0\nsamples = 13\nvalue = [13, 0, 0]"] ;
324 -> 325 ;
326 [label="X[19] <= 10.5\ngini = 0.444\nsamples = 3\nvalue = [2, 1, 0]"] ;
324 -> 326 ;
327 [label="gini = 0.0\nsamples = 1\nvalue = [0, 1, 0]"] ;
326 -> 327 ;
328 [label="gini = 0.0\nsamples = 2\nvalue = [2, 0, 0]"] ;
326 -> 328 ;
329 [label="X[6] <= 17.5\ngini = 0.384\nsamples = 27\nvalue = [7, 20, 0]"] ;
307 -> 329 ;
330 [label="X[33] <= 13.5\ngini = 0.475\nsamples = 18\nvalue = [7, 11, 0]"] ;
329 -> 330 ;
331 [label="gini = 0.0\nsamples = 4\nvalue = [4, 0, 0]"] ;
330 -> 331 ;
332 [label="X[3] <= 18.5\ngini = 0.337\nsamples = 14\nvalue = [3, 11, 0]"] ;
330 -> 332 ;
333 [label="X[28] <= 12.5\ngini = 0.165\nsamples = 11\nvalue = [1, 10, 0]"] ;
332 -> 333 ;
334 [label="X[18] <= 16.5\ngini = 0.444\nsamples = 3\nvalue = [1, 2, 0]"] ;
333 -> 334 ;
335 [label="gini = 0.0\nsamples = 2\nvalue = [0, 2, 0]"] ;
334 -> 335 ;
336 [label="gini = 0.0\nsamples = 1\nvalue = [1, 0, 0]"] ;
334 -> 336 ;
337 [label="gini = 0.0\nsamples = 8\nvalue = [0, 8, 0]"] ;
333 -> 337 ;
338 [label="X[23] <= 9.5\ngini = 0.444\nsamples = 3\nvalue = [2, 1, 0]"] ;
332 -> 338 ;
339 [label="gini = 0.0\nsamples = 1\nvalue = [0, 1, 0]"] ;
338 -> 339 ;
340 [label="gini = 0.0\nsamples = 2\nvalue = [2, 0, 0]"] ;
338 -> 340 ;
341 [label="gini = 0.0\nsamples = 9\nvalue = [0, 9, 0]"] ;
329 -> 341 ;
342 [label="X[23] <= 22.0\ngini = 0.142\nsamples = 13\nvalue = [12, 1, 0]"] ;
306 -> 342 ;
343 [label="gini = 0.0\nsamples = 12\nvalue = [12, 0, 0]"] ;
342 -> 343 ;
344 [label="gini = 0.0\nsamples = 1\nvalue = [0, 1, 0]"] ;
342 -> 344 ;
345 [label="X[20] <= 1.5\ngini = 0.469\nsamples = 94\nvalue = [60, 33, 1]"] ;
23 -> 345 ;
346 [label="X[25] <= 3.5\ngini = 0.444\nsamples = 15\nvalue = [5, 10, 0]"] ;
345 -> 346 ;
347 [label="gini = 0.0\nsamples = 3\nvalue = [3, 0, 0]"] ;
346 -> 347 ;
348 [label="X[10] <= 3.5\ngini = 0.278\nsamples = 12\nvalue = [2, 10, 0]"] ;
346 -> 348 ;
349 [label="gini = 0.0\nsamples = 9\nvalue = [0, 9, 0]"] ;
348 -> 349 ;
350 [label="X[23] <= 2.0\ngini = 0.444\nsamples = 3\nvalue = [2, 1, 0]"] ;
348 -> 350 ;
351 [label="gini = 0.0\nsamples = 2\nvalue = [2, 0, 0]"] ;
350 -> 351 ;
352 [label="gini = 0.0\nsamples = 1\nvalue = [0, 1, 0]"] ;
350 -> 352 ;
353 [label="X[3] <= 30.5\ngini = 0.43\nsamples = 79\nvalue = [55, 23, 1]"] ;
345 -> 353 ;
354 [label="X[7] <= 5.5\ngini = 0.35\nsamples = 59\nvalue = [46, 12, 1]"] ;
353 -> 354 ;
355 [label="X[19] <= 2.5\ngini = 0.087\nsamples = 22\nvalue = [21, 1, 0]"] ;
354 -> 355 ;
356 [label="X[7] <= 1.5\ngini = 0.5\nsamples = 2\nvalue = [1, 1, 0]"] ;
355 -> 356 ;
357 [label="gini = 0.0\nsamples = 1\nvalue = [1, 0, 0]"] ;
356 -> 357 ;
358 [label="gini = 0.0\nsamples = 1\nvalue = [0, 1, 0]"] ;
356 -> 358 ;
359 [label="gini = 0.0\nsamples = 20\nvalue = [20, 0, 0]"] ;
355 -> 359 ;
360 [label="X[32] <= 104.5\ngini = 0.454\nsamples = 37\nvalue = [25, 11, 1]"] ;
354 -> 360 ;
361 [label="X[5] <= 5.5\ngini = 0.423\nsamples = 35\nvalue = [25, 9, 1]"] ;
360 -> 361 ;
362 [label="gini = 0.0\nsamples = 1\nvalue = [0, 0, 1]"] ;
361 -> 362 ;
363 [label="X[27] <= 16.0\ngini = 0.389\nsamples = 34\nvalue = [25, 9, 0]"] ;
361 -> 363 ;
364 [label="gini = 0.0\nsamples = 8\nvalue = [8, 0, 0]"] ;
363 -> 364 ;
365 [label="X[10] <= 20.0\ngini = 0.453\nsamples = 26\nvalue = [17, 9, 0]"] ;
363 -> 365 ;
366 [label="X[18] <= 24.0\ngini = 0.32\nsamples = 5\nvalue = [1, 4, 0]"] ;
365 -> 366 ;
367 [label="gini = 0.0\nsamples = 4\nvalue = [0, 4, 0]"] ;
366 -> 367 ;
368 [label="gini = 0.0\nsamples = 1\nvalue = [1, 0, 0]"] ;
366 -> 368 ;
369 [label="X[33] <= 58.0\ngini = 0.363\nsamples = 21\nvalue = [16, 5, 0]"] ;
365 -> 369 ;
370 [label="X[14] <= 12.5\ngini = 0.266\nsamples = 19\nvalue = [16, 3, 0]"] ;
369 -> 370 ;
371 [label="X[32] <= 39.5\ngini = 0.5\nsamples = 6\nvalue = [3, 3, 0]"] ;
370 -> 371 ;
372 [label="gini = 0.0\nsamples = 3\nvalue = [0, 3, 0]"] ;
371 -> 372 ;
373 [label="gini = 0.0\nsamples = 3\nvalue = [3, 0, 0]"] ;
371 -> 373 ;
374 [label="gini = 0.0\nsamples = 13\nvalue = [13, 0, 0]"] ;
370 -> 374 ;
375 [label="gini = 0.0\nsamples = 2\nvalue = [0, 2, 0]"] ;
369 -> 375 ;
376 [label="gini = 0.0\nsamples = 2\nvalue = [0, 2, 0]"] ;
360 -> 376 ;
377 [label="X[14] <= 23.0\ngini = 0.495\nsamples = 20\nvalue = [9, 11, 0]"] ;
353 -> 377 ;
378 [label="X[35] <= 19.5\ngini = 0.43\nsamples = 16\nvalue = [5, 11, 0]"] ;
377 -> 378 ;
379 [label="X[19] <= 25.0\ngini = 0.444\nsamples = 6\nvalue = [4, 2, 0]"] ;
378 -> 379 ;
380 [label="gini = 0.0\nsamples = 2\nvalue = [0, 2, 0]"] ;
379 -> 380 ;
381 [label="gini = 0.0\nsamples = 4\nvalue = [4, 0, 0]"] ;
379 -> 381 ;
382 [label="X[15] <= 7.5\ngini = 0.18\nsamples = 10\nvalue = [1, 9, 0]"] ;
378 -> 382 ;
383 [label="X[11] <= 35.5\ngini = 0.444\nsamples = 3\nvalue = [1, 2, 0]"] ;
382 -> 383 ;
384 [label="gini = 0.0\nsamples = 1\nvalue = [1, 0, 0]"] ;
383 -> 384 ;
385 [label="gini = 0.0\nsamples = 2\nvalue = [0, 2, 0]"] ;
383 -> 385 ;
386 [label="gini = 0.0\nsamples = 7\nvalue = [0, 7, 0]"] ;
382 -> 386 ;
387 [label="gini = 0.0\nsamples = 4\nvalue = [4, 0, 0]"] ;
377 -> 387 ;
388 [label="X[30] <= 24.5\ngini = 0.489\nsamples = 843\nvalue = [358, 485, 0]"] ;
22 -> 388 ;
389 [label="X[26] <= 47.0\ngini = 0.457\nsamples = 235\nvalue = [83, 152, 0]"] ;
388 -> 389 ;
390 [label="X[21] <= 8.5\ngini = 0.448\nsamples = 230\nvalue = [78, 152, 0]"] ;
389 -> 390 ;
391 [label="X[4] <= 0.5\ngini = 0.465\nsamples = 19\nvalue = [12, 7, 0]"] ;
390 -> 391 ;
392 [label="gini = 0.0\nsamples = 3\nvalue = [0, 3, 0]"] ;
391 -> 392 ;
393 [label="X[6] <= 7.0\ngini = 0.375\nsamples = 16\nvalue = [12, 4, 0]"] ;
391 -> 393 ;
394 [label="X[7] <= 45.5\ngini = 0.444\nsamples = 3\nvalue = [1, 2, 0]"] ;
393 -> 394 ;
395 [label="gini = 0.0\nsamples = 1\nvalue = [1, 0, 0]"] ;
394 -> 395 ;
396 [label="gini = 0.0\nsamples = 2\nvalue = [0, 2, 0]"] ;
394 -> 396 ;
397 [label="X[30] <= 10.5\ngini = 0.26\nsamples = 13\nvalue = [11, 2, 0]"] ;
393 -> 397 ;
398 [label="X[7] <= 21.5\ngini = 0.153\nsamples = 12\nvalue = [11, 1, 0]"] ;
397 -> 398 ;
399 [label="gini = 0.0\nsamples = 1\nvalue = [0, 1, 0]"] ;
398 -> 399 ;
400 [label="gini = 0.0\nsamples = 11\nvalue = [11, 0, 0]"] ;
398 -> 400 ;
401 [label="gini = 0.0\nsamples = 1\nvalue = [0, 1, 0]"] ;
397 -> 401 ;
402 [label="X[31] <= 23.5\ngini = 0.43\nsamples = 211\nvalue = [66, 145, 0]"] ;
390 -> 402 ;
403 [label="X[10] <= 12.5\ngini = 0.459\nsamples = 168\nvalue = [60, 108, 0]"] ;
402 -> 403 ;
404 [label="X[13] <= 7.5\ngini = 0.308\nsamples = 42\nvalue = [8, 34, 0]"] ;
403 -> 404 ;
405 [label="X[34] <= 5.5\ngini = 0.375\nsamples = 4\nvalue = [3, 1, 0]"] ;
404 -> 405 ;
406 [label="gini = 0.0\nsamples = 3\nvalue = [3, 0, 0]"] ;
405 -> 406 ;
407 [label="gini = 0.0\nsamples = 1\nvalue = [0, 1, 0]"] ;
405 -> 407 ;
408 [label="X[32] <= 84.5\ngini = 0.229\nsamples = 38\nvalue = [5, 33, 0]"] ;
404 -> 408 ;
409 [label="X[21] <= 11.5\ngini = 0.193\nsamples = 37\nvalue = [4, 33, 0]"] ;
408 -> 409 ;
410 [label="X[5] <= 11.5\ngini = 0.42\nsamples = 10\nvalue = [3, 7, 0]"] ;
409 -> 410 ;
411 [label="gini = 0.0\nsamples = 6\nvalue = [0, 6, 0]"] ;
410 -> 411 ;
412 [label="X[38] <= 7.5\ngini = 0.375\nsamples = 4\nvalue = [3, 1, 0]"] ;
410 -> 412 ;
413 [label="gini = 0.0\nsamples = 1\nvalue = [0, 1, 0]"] ;
412 -> 413 ;
414 [label="gini = 0.0\nsamples = 3\nvalue = [3, 0, 0]"] ;
412 -> 414 ;
415 [label="X[15] <= 17.5\ngini = 0.071\nsamples = 27\nvalue = [1, 26, 0]"] ;
409 -> 415 ;
416 [label="X[20] <= 11.5\ngini = 0.375\nsamples = 4\nvalue = [1, 3, 0]"] ;
415 -> 416 ;
417 [label="gini = 0.0\nsamples = 3\nvalue = [0, 3, 0]"] ;
416 -> 417 ;
418 [label="gini = 0.0\nsamples = 1\nvalue = [1, 0, 0]"] ;
416 -> 418 ;
419 [label="gini = 0.0\nsamples = 23\nvalue = [0, 23, 0]"] ;
415 -> 419 ;
420 [label="gini = 0.0\nsamples = 1\nvalue = [1, 0, 0]"] ;
408 -> 420 ;
421 [label="X[1] <= 51.5\ngini = 0.485\nsamples = 126\nvalue = [52, 74, 0]"] ;
403 -> 421 ;
422 [label="X[9] <= 45.0\ngini = 0.494\nsamples = 117\nvalue = [52, 65, 0]"] ;
421 -> 422 ;
423 [label="X[28] <= 28.5\ngini = 0.487\nsamples = 112\nvalue = [47, 65, 0]"] ;
422 -> 423 ;
424 [label="X[25] <= 35.5\ngini = 0.497\nsamples = 98\nvalue = [45, 53, 0]"] ;
423 -> 424 ;
425 [label="X[24] <= 37.0\ngini = 0.49\nsamples = 93\nvalue = [40, 53, 0]"] ;
424 -> 425 ;
426 [label="X[9] <= 39.0\ngini = 0.497\nsamples = 87\nvalue = [40, 47, 0]"] ;
425 -> 426 ;
427 [label="X[8] <= 35.5\ngini = 0.489\nsamples = 82\nvalue = [35, 47, 0]"] ;
426 -> 427 ;
428 [label="X[14] <= 19.5\ngini = 0.5\nsamples = 72\nvalue = [35, 37, 0]"] ;
427 -> 428 ;
429 [label="X[5] <= 18.5\ngini = 0.32\nsamples = 15\nvalue = [12, 3, 0]"] ;
428 -> 429 ;
430 [label="X[15] <= 19.5\ngini = 0.48\nsamples = 5\nvalue = [2, 3, 0]"] ;
429 -> 430 ;
431 [label="gini = 0.0\nsamples = 3\nvalue = [0, 3, 0]"] ;
430 -> 431 ;
432 [label="gini = 0.0\nsamples = 2\nvalue = [2, 0, 0]"] ;
430 -> 432 ;
433 [label="gini = 0.0\nsamples = 10\nvalue = [10, 0, 0]"] ;
429 -> 433 ;
434 [label="X[38] <= 14.5\ngini = 0.481\nsamples = 57\nvalue = [23, 34, 0]"] ;
428 -> 434 ;
435 [label="X[1] <= 34.0\ngini = 0.142\nsamples = 13\nvalue = [1, 12, 0]"] ;
434 -> 435 ;
436 [label="gini = 0.0\nsamples = 12\nvalue = [0, 12, 0]"] ;
435 -> 436 ;
437 [label="gini = 0.0\nsamples = 1\nvalue = [1, 0, 0]"] ;
435 -> 437 ;
438 [label="X[0] <= 25.5\ngini = 0.5\nsamples = 44\nvalue = [22, 22, 0]"] ;
434 -> 438 ;
439 [label="X[38] <= 18.5\ngini = 0.453\nsamples = 26\nvalue = [9, 17, 0]"] ;
438 -> 439 ;
440 [label="X[14] <= 21.5\ngini = 0.397\nsamples = 11\nvalue = [8, 3, 0]"] ;
439 -> 440 ;
441 [label="X[14] <= 20.5\ngini = 0.48\nsamples = 5\nvalue = [2, 3, 0]"] ;
440 -> 441 ;
442 [label="gini = 0.0\nsamples = 2\nvalue = [2, 0, 0]"] ;
441 -> 442 ;
443 [label="gini = 0.0\nsamples = 3\nvalue = [0, 3, 0]"] ;
441 -> 443 ;
444 [label="gini = 0.0\nsamples = 6\nvalue = [6, 0, 0]"] ;
440 -> 444 ;
445 [label="X[11] <= 15.5\ngini = 0.124\nsamples = 15\nvalue = [1, 14, 0]"] ;
439 -> 445 ;
446 [label="gini = 0.0\nsamples = 1\nvalue = [1, 0, 0]"] ;
445 -> 446 ;
447 [label="gini = 0.0\nsamples = 14\nvalue = [0, 14, 0]"] ;
445 -> 447 ;
448 [label="X[8] <= 28.5\ngini = 0.401\nsamples = 18\nvalue = [13, 5, 0]"] ;
438 -> 448 ;
449 [label="gini = 0.0\nsamples = 9\nvalue = [9, 0, 0]"] ;
448 -> 449 ;
450 [label="X[27] <= 26.5\ngini = 0.494\nsamples = 9\nvalue = [4, 5, 0]"] ;
448 -> 450 ;
451 [label="gini = 0.0\nsamples = 4\nvalue = [0, 4, 0]"] ;
450 -> 451 ;
452 [label="X[38] <= 27.5\ngini = 0.32\nsamples = 5\nvalue = [4, 1, 0]"] ;
450 -> 452 ;
453 [label="gini = 0.0\nsamples = 4\nvalue = [4, 0, 0]"] ;
452 -> 453 ;
454 [label="gini = 0.0\nsamples = 1\nvalue = [0, 1, 0]"] ;
452 -> 454 ;
455 [label="gini = 0.0\nsamples = 10\nvalue = [0, 10, 0]"] ;
427 -> 455 ;
456 [label="gini = 0.0\nsamples = 5\nvalue = [5, 0, 0]"] ;
426 -> 456 ;
457 [label="gini = 0.0\nsamples = 6\nvalue = [0, 6, 0]"] ;
425 -> 457 ;
458 [label="gini = 0.0\nsamples = 5\nvalue = [5, 0, 0]"] ;
424 -> 458 ;
459 [label="X[20] <= 40.5\ngini = 0.245\nsamples = 14\nvalue = [2, 12, 0]"] ;
423 -> 459 ;
460 [label="gini = 0.0\nsamples = 11\nvalue = [0, 11, 0]"] ;
459 -> 460 ;
461 [label="X[23] <= 20.0\ngini = 0.444\nsamples = 3\nvalue = [2, 1, 0]"] ;
459 -> 461 ;
462 [label="gini = 0.0\nsamples = 1\nvalue = [0, 1, 0]"] ;
461 -> 462 ;
463 [label="gini = 0.0\nsamples = 2\nvalue = [2, 0, 0]"] ;
461 -> 463 ;
464 [label="gini = 0.0\nsamples = 5\nvalue = [5, 0, 0]"] ;
422 -> 464 ;
465 [label="gini = 0.0\nsamples = 9\nvalue = [0, 9, 0]"] ;
421 -> 465 ;
466 [label="X[20] <= 18.5\ngini = 0.24\nsamples = 43\nvalue = [6, 37, 0]"] ;
402 -> 466 ;
467 [label="X[8] <= 10.0\ngini = 0.43\nsamples = 16\nvalue = [5, 11, 0]"] ;
466 -> 467 ;
468 [label="gini = 0.0\nsamples = 8\nvalue = [0, 8, 0]"] ;
467 -> 468 ;
469 [label="X[33] <= 17.5\ngini = 0.469\nsamples = 8\nvalue = [5, 3, 0]"] ;
467 -> 469 ;
470 [label="gini = 0.0\nsamples = 4\nvalue = [4, 0, 0]"] ;
469 -> 470 ;
471 [label="X[34] <= 15.5\ngini = 0.375\nsamples = 4\nvalue = [1, 3, 0]"] ;
469 -> 471 ;
472 [label="gini = 0.0\nsamples = 1\nvalue = [1, 0, 0]"] ;
471 -> 472 ;
473 [label="gini = 0.0\nsamples = 3\nvalue = [0, 3, 0]"] ;
471 -> 473 ;
474 [label="X[24] <= 4.5\ngini = 0.071\nsamples = 27\nvalue = [1, 26, 0]"] ;
466 -> 474 ;
475 [label="gini = 0.0\nsamples = 1\nvalue = [1, 0, 0]"] ;
474 -> 475 ;
476 [label="gini = 0.0\nsamples = 26\nvalue = [0, 26, 0]"] ;
474 -> 476 ;
477 [label="gini = 0.0\nsamples = 5\nvalue = [5, 0, 0]"] ;
389 -> 477 ;
478 [label="X[33] <= 25.5\ngini = 0.495\nsamples = 608\nvalue = [275, 333, 0]"] ;
388 -> 478 ;
479 [label="X[8] <= 28.5\ngini = 0.486\nsamples = 156\nvalue = [91, 65, 0]"] ;
478 -> 479 ;
480 [label="X[9] <= 22.5\ngini = 0.498\nsamples = 124\nvalue = [66, 58, 0]"] ;
479 -> 480 ;
481 [label="X[3] <= 24.5\ngini = 0.475\nsamples = 90\nvalue = [55, 35, 0]"] ;
480 -> 481 ;
482 [label="X[22] <= 43.5\ngini = 0.5\nsamples = 61\nvalue = [31, 30, 0]"] ;
481 -> 482 ;
483 [label="X[7] <= 20.5\ngini = 0.48\nsamples = 50\nvalue = [30, 20, 0]"] ;
482 -> 483 ;
484 [label="X[22] <= 22.5\ngini = 0.375\nsamples = 8\nvalue = [2, 6, 0]"] ;
483 -> 484 ;
485 [label="X[6] <= 17.0\ngini = 0.444\nsamples = 3\nvalue = [2, 1, 0]"] ;
484 -> 485 ;
486 [label="gini = 0.0\nsamples = 2\nvalue = [2, 0, 0]"] ;
485 -> 486 ;
487 [label="gini = 0.0\nsamples = 1\nvalue = [0, 1, 0]"] ;
485 -> 487 ;
488 [label="gini = 0.0\nsamples = 5\nvalue = [0, 5, 0]"] ;
484 -> 488 ;
489 [label="X[7] <= 56.0\ngini = 0.444\nsamples = 42\nvalue = [28, 14, 0]"] ;
483 -> 489 ;
490 [label="X[11] <= 25.5\ngini = 0.405\nsamples = 39\nvalue = [28, 11, 0]"] ;
489 -> 490 ;
491 [label="X[24] <= 7.5\ngini = 0.368\nsamples = 37\nvalue = [28, 9, 0]"] ;
490 -> 491 ;
492 [label="gini = 0.0\nsamples = 10\nvalue = [10, 0, 0]"] ;
491 -> 492 ;
493 [label="X[28] <= 20.5\ngini = 0.444\nsamples = 27\nvalue = [18, 9, 0]"] ;
491 -> 493 ;
494 [label="gini = 0.0\nsamples = 5\nvalue = [0, 5, 0]"] ;
493 -> 494 ;
495 [label="X[16] <= 8.5\ngini = 0.298\nsamples = 22\nvalue = [18, 4, 0]"] ;
493 -> 495 ;
496 [label="gini = 0.0\nsamples = 2\nvalue = [0, 2, 0]"] ;
495 -> 496 ;
497 [label="X[10] <= 20.5\ngini = 0.18\nsamples = 20\nvalue = [18, 2, 0]"] ;
495 -> 497 ;
498 [label="gini = 0.0\nsamples = 16\nvalue = [16, 0, 0]"] ;
497 -> 498 ;
499 [label="X[21] <= 24.5\ngini = 0.5\nsamples = 4\nvalue = [2, 2, 0]"] ;
497 -> 499 ;
500 [label="gini = 0.0\nsamples = 2\nvalue = [2, 0, 0]"] ;
499 -> 500 ;
501 [label="gini = 0.0\nsamples = 2\nvalue = [0, 2, 0]"] ;
499 -> 501 ;
502 [label="gini = 0.0\nsamples = 2\nvalue = [0, 2, 0]"] ;
490 -> 502 ;
503 [label="gini = 0.0\nsamples = 3\nvalue = [0, 3, 0]"] ;
489 -> 503 ;
504 [label="X[15] <= 94.0\ngini = 0.165\nsamples = 11\nvalue = [1, 10, 0]"] ;
482 -> 504 ;
505 [label="gini = 0.0\nsamples = 10\nvalue = [0, 10, 0]"] ;
504 -> 505 ;
506 [label="gini = 0.0\nsamples = 1\nvalue = [1, 0, 0]"] ;
504 -> 506 ;
507 [label="X[4] <= 56.5\ngini = 0.285\nsamples = 29\nvalue = [24, 5, 0]"] ;
481 -> 507 ;
508 [label="X[33] <= 24.5\ngini = 0.198\nsamples = 27\nvalue = [24, 3, 0]"] ;
507 -> 508 ;
509 [label="X[34] <= 14.5\ngini = 0.142\nsamples = 26\nvalue = [24, 2, 0]"] ;
508 -> 509 ;
510 [label="X[2] <= 22.0\ngini = 0.444\nsamples = 6\nvalue = [4, 2, 0]"] ;
509 -> 510 ;
511 [label="gini = 0.0\nsamples = 4\nvalue = [4, 0, 0]"] ;
510 -> 511 ;
512 [label="gini = 0.0\nsamples = 2\nvalue = [0, 2, 0]"] ;
510 -> 512 ;
513 [label="gini = 0.0\nsamples = 20\nvalue = [20, 0, 0]"] ;
509 -> 513 ;
514 [label="gini = 0.0\nsamples = 1\nvalue = [0, 1, 0]"] ;
508 -> 514 ;
515 [label="gini = 0.0\nsamples = 2\nvalue = [0, 2, 0]"] ;
507 -> 515 ;
516 [label="X[17] <= 27.5\ngini = 0.438\nsamples = 34\nvalue = [11, 23, 0]"] ;
480 -> 516 ;
517 [label="X[32] <= 17.5\ngini = 0.488\nsamples = 26\nvalue = [11, 15, 0]"] ;
516 -> 517 ;
518 [label="X[5] <= 45.5\ngini = 0.198\nsamples = 9\nvalue = [1, 8, 0]"] ;
517 -> 518 ;
519 [label="gini = 0.0\nsamples = 8\nvalue = [0, 8, 0]"] ;
518 -> 519 ;
520 [label="gini = 0.0\nsamples = 1\nvalue = [1, 0, 0]"] ;
518 -> 520 ;
521 [label="X[30] <= 35.5\ngini = 0.484\nsamples = 17\nvalue = [10, 7, 0]"] ;
517 -> 521 ;
522 [label="gini = 0.0\nsamples = 8\nvalue = [8, 0, 0]"] ;
521 -> 522 ;
523 [label="X[39] <= 47.5\ngini = 0.346\nsamples = 9\nvalue = [2, 7, 0]"] ;
521 -> 523 ;
524 [label="gini = 0.0\nsamples = 7\nvalue = [0, 7, 0]"] ;
523 -> 524 ;
525 [label="gini = 0.0\nsamples = 2\nvalue = [2, 0, 0]"] ;
523 -> 525 ;
526 [label="gini = 0.0\nsamples = 8\nvalue = [0, 8, 0]"] ;
516 -> 526 ;
527 [label="X[13] <= 26.5\ngini = 0.342\nsamples = 32\nvalue = [25, 7, 0]"] ;
479 -> 527 ;
528 [label="X[35] <= 19.0\ngini = 0.5\nsamples = 12\nvalue = [6, 6, 0]"] ;
527 -> 528 ;
529 [label="gini = 0.0\nsamples = 5\nvalue = [5, 0, 0]"] ;
528 -> 529 ;
530 [label="X[25] <= 23.5\ngini = 0.245\nsamples = 7\nvalue = [1, 6, 0]"] ;
528 -> 530 ;
531 [label="gini = 0.0\nsamples = 6\nvalue = [0, 6, 0]"] ;
530 -> 531 ;
532 [label="gini = 0.0\nsamples = 1\nvalue = [1, 0, 0]"] ;
530 -> 532 ;
533 [label="X[18] <= 37.0\ngini = 0.095\nsamples = 20\nvalue = [19, 1, 0]"] ;
527 -> 533 ;
534 [label="gini = 0.0\nsamples = 18\nvalue = [18, 0, 0]"] ;
533 -> 534 ;
535 [label="X[12] <= 52.5\ngini = 0.5\nsamples = 2\nvalue = [1, 1, 0]"] ;
533 -> 535 ;
536 [label="gini = 0.0\nsamples = 1\nvalue = [0, 1, 0]"] ;
535 -> 536 ;
537 [label="gini = 0.0\nsamples = 1\nvalue = [1, 0, 0]"] ;
535 -> 537 ;
538 [label="X[20] <= 27.5\ngini = 0.483\nsamples = 452\nvalue = [184, 268, 0]"] ;
478 -> 538 ;
539 [label="X[5] <= 21.5\ngini = 0.325\nsamples = 44\nvalue = [9, 35, 0]"] ;
538 -> 539 ;
540 [label="X[14] <= 24.5\ngini = 0.494\nsamples = 9\nvalue = [5, 4, 0]"] ;
539 -> 540 ;
541 [label="X[1] <= 25.5\ngini = 0.32\nsamples = 5\nvalue = [1, 4, 0]"] ;
540 -> 541 ;
542 [label="gini = 0.0\nsamples = 4\nvalue = [0, 4, 0]"] ;
541 -> 542 ;
543 [label="gini = 0.0\nsamples = 1\nvalue = [1, 0, 0]"] ;
541 -> 543 ;
544 [label="gini = 0.0\nsamples = 4\nvalue = [4, 0, 0]"] ;
540 -> 544 ;
545 [label="X[32] <= 26.5\ngini = 0.202\nsamples = 35\nvalue = [4, 31, 0]"] ;
539 -> 545 ;
546 [label="X[22] <= 36.5\ngini = 0.444\nsamples = 3\nvalue = [2, 1, 0]"] ;
545 -> 546 ;
547 [label="gini = 0.0\nsamples = 2\nvalue = [2, 0, 0]"] ;
546 -> 547 ;
548 [label="gini = 0.0\nsamples = 1\nvalue = [0, 1, 0]"] ;
546 -> 548 ;
549 [label="X[9] <= 76.5\ngini = 0.117\nsamples = 32\nvalue = [2, 30, 0]"] ;
545 -> 549 ;
550 [label="X[25] <= 24.5\ngini = 0.062\nsamples = 31\nvalue = [1, 30, 0]"] ;
549 -> 550 ;
551 [label="gini = 0.0\nsamples = 1\nvalue = [1, 0, 0]"] ;
550 -> 551 ;
552 [label="gini = 0.0\nsamples = 30\nvalue = [0, 30, 0]"] ;
550 -> 552 ;
553 [label="gini = 0.0\nsamples = 1\nvalue = [1, 0, 0]"] ;
549 -> 553 ;
554 [label="X[27] <= 27.5\ngini = 0.49\nsamples = 408\nvalue = [175, 233, 0]"] ;
538 -> 554 ;
555 [label="X[13] <= 31.0\ngini = 0.434\nsamples = 22\nvalue = [15, 7, 0]"] ;
554 -> 555 ;
556 [label="X[37] <= 32.0\ngini = 0.408\nsamples = 7\nvalue = [2, 5, 0]"] ;
555 -> 556 ;
557 [label="gini = 0.0\nsamples = 5\nvalue = [0, 5, 0]"] ;
556 -> 557 ;
558 [label="gini = 0.0\nsamples = 2\nvalue = [2, 0, 0]"] ;
556 -> 558 ;
559 [label="X[8] <= 45.0\ngini = 0.231\nsamples = 15\nvalue = [13, 2, 0]"] ;
555 -> 559 ;
560 [label="gini = 0.0\nsamples = 13\nvalue = [13, 0, 0]"] ;
559 -> 560 ;
561 [label="gini = 0.0\nsamples = 2\nvalue = [0, 2, 0]"] ;
559 -> 561 ;
562 [label="X[25] <= 31.5\ngini = 0.485\nsamples = 386\nvalue = [160, 226, 0]"] ;
554 -> 562 ;
563 [label="X[12] <= 31.5\ngini = 0.366\nsamples = 58\nvalue = [14, 44, 0]"] ;
562 -> 563 ;
564 [label="X[16] <= 26.5\ngini = 0.488\nsamples = 26\nvalue = [11, 15, 0]"] ;
563 -> 564 ;
565 [label="X[18] <= 41.0\ngini = 0.26\nsamples = 13\nvalue = [2, 11, 0]"] ;
564 -> 565 ;
566 [label="X[13] <= 25.0\ngini = 0.153\nsamples = 12\nvalue = [1, 11, 0]"] ;
565 -> 566 ;
567 [label="X[8] <= 23.5\ngini = 0.5\nsamples = 2\nvalue = [1, 1, 0]"] ;
566 -> 567 ;
568 [label="gini = 0.0\nsamples = 1\nvalue = [1, 0, 0]"] ;
567 -> 568 ;
569 [label="gini = 0.0\nsamples = 1\nvalue = [0, 1, 0]"] ;
567 -> 569 ;
570 [label="gini = 0.0\nsamples = 10\nvalue = [0, 10, 0]"] ;
566 -> 570 ;
571 [label="gini = 0.0\nsamples = 1\nvalue = [1, 0, 0]"] ;
565 -> 571 ;
572 [label="X[27] <= 30.0\ngini = 0.426\nsamples = 13\nvalue = [9, 4, 0]"] ;
564 -> 572 ;
573 [label="gini = 0.0\nsamples = 3\nvalue = [0, 3, 0]"] ;
572 -> 573 ;
574 [label="X[0] <= 22.5\ngini = 0.18\nsamples = 10\nvalue = [9, 1, 0]"] ;
572 -> 574 ;
575 [label="gini = 0.0\nsamples = 1\nvalue = [0, 1, 0]"] ;
574 -> 575 ;
576 [label="gini = 0.0\nsamples = 9\nvalue = [9, 0, 0]"] ;
574 -> 576 ;
577 [label="X[18] <= 42.0\ngini = 0.17\nsamples = 32\nvalue = [3, 29, 0]"] ;
563 -> 577 ;
578 [label="X[37] <= 53.0\ngini = 0.067\nsamples = 29\nvalue = [1, 28, 0]"] ;
577 -> 578 ;
579 [label="gini = 0.0\nsamples = 28\nvalue = [0, 28, 0]"] ;
578 -> 579 ;
580 [label="gini = 0.0\nsamples = 1\nvalue = [1, 0, 0]"] ;
578 -> 580 ;
581 [label="X[35] <= 51.0\ngini = 0.444\nsamples = 3\nvalue = [2, 1, 0]"] ;
577 -> 581 ;
582 [label="gini = 0.0\nsamples = 2\nvalue = [2, 0, 0]"] ;
581 -> 582 ;
583 [label="gini = 0.0\nsamples = 1\nvalue = [0, 1, 0]"] ;
581 -> 583 ;
584 [label="X[26] <= 42.5\ngini = 0.494\nsamples = 328\nvalue = [146, 182, 0]"] ;
562 -> 584 ;
585 [label="X[7] <= 34.5\ngini = 0.498\nsamples = 136\nvalue = [72, 64, 0]"] ;
584 -> 585 ;
586 [label="X[25] <= 41.0\ngini = 0.397\nsamples = 33\nvalue = [24, 9, 0]"] ;
585 -> 586 ;
587 [label="X[28] <= 48.0\ngini = 0.302\nsamples = 27\nvalue = [22, 5, 0]"] ;
586 -> 587 ;
588 [label="X[3] <= 31.5\ngini = 0.211\nsamples = 25\nvalue = [22, 3, 0]"] ;
587 -> 588 ;
589 [label="X[3] <= 30.0\ngini = 0.397\nsamples = 11\nvalue = [8, 3, 0]"] ;
588 -> 589 ;
590 [label="gini = 0.0\nsamples = 8\nvalue = [8, 0, 0]"] ;
589 -> 590 ;
591 [label="gini = 0.0\nsamples = 3\nvalue = [0, 3, 0]"] ;
589 -> 591 ;
592 [label="gini = 0.0\nsamples = 14\nvalue = [14, 0, 0]"] ;
588 -> 592 ;
593 [label="gini = 0.0\nsamples = 2\nvalue = [0, 2, 0]"] ;
587 -> 593 ;
594 [label="X[23] <= 34.0\ngini = 0.444\nsamples = 6\nvalue = [2, 4, 0]"] ;
586 -> 594 ;
595 [label="gini = 0.0\nsamples = 4\nvalue = [0, 4, 0]"] ;
594 -> 595 ;
596 [label="gini = 0.0\nsamples = 2\nvalue = [2, 0, 0]"] ;
594 -> 596 ;
597 [label="X[13] <= 35.5\ngini = 0.498\nsamples = 103\nvalue = [48, 55, 0]"] ;
585 -> 597 ;
598 [label="X[8] <= 31.5\ngini = 0.278\nsamples = 18\nvalue = [3, 15, 0]"] ;
597 -> 598 ;
599 [label="X[12] <= 33.5\ngini = 0.5\nsamples = 6\nvalue = [3, 3, 0]"] ;
598 -> 599 ;
600 [label="gini = 0.0\nsamples = 3\nvalue = [3, 0, 0]"] ;
599 -> 600 ;
601 [label="gini = 0.0\nsamples = 3\nvalue = [0, 3, 0]"] ;
599 -> 601 ;
602 [label="gini = 0.0\nsamples = 12\nvalue = [0, 12, 0]"] ;
598 -> 602 ;
603 [label="X[12] <= 42.5\ngini = 0.498\nsamples = 85\nvalue = [45, 40, 0]"] ;
597 -> 603 ;
604 [label="X[10] <= 41.0\ngini = 0.439\nsamples = 43\nvalue = [29, 14, 0]"] ;
603 -> 604 ;
605 [label="X[38] <= 39.5\ngini = 0.499\nsamples = 27\nvalue = [13, 14, 0]"] ;
604 -> 605 ;
606 [label="X[16] <= 34.5\ngini = 0.401\nsamples = 18\nvalue = [5, 13, 0]"] ;
605 -> 606 ;
607 [label="X[12] <= 35.0\ngini = 0.444\nsamples = 6\nvalue = [4, 2, 0]"] ;
606 -> 607 ;
608 [label="gini = 0.0\nsamples = 2\nvalue = [0, 2, 0]"] ;
607 -> 608 ;
609 [label="gini = 0.0\nsamples = 4\nvalue = [4, 0, 0]"] ;
607 -> 609 ;
610 [label="X[22] <= 35.0\ngini = 0.153\nsamples = 12\nvalue = [1, 11, 0]"] ;
606 -> 610 ;
611 [label="gini = 0.0\nsamples = 1\nvalue = [1, 0, 0]"] ;
610 -> 611 ;
612 [label="gini = 0.0\nsamples = 11\nvalue = [0, 11, 0]"] ;
610 -> 612 ;
613 [label="X[6] <= 37.0\ngini = 0.198\nsamples = 9\nvalue = [8, 1, 0]"] ;
605 -> 613 ;
614 [label="gini = 0.0\nsamples = 1\nvalue = [0, 1, 0]"] ;
613 -> 614 ;
615 [label="gini = 0.0\nsamples = 8\nvalue = [8, 0, 0]"] ;
613 -> 615 ;
616 [label="gini = 0.0\nsamples = 16\nvalue = [16, 0, 0]"] ;
604 -> 616 ;
617 [label="X[4] <= 47.5\ngini = 0.472\nsamples = 42\nvalue = [16, 26, 0]"] ;
603 -> 617 ;
618 [label="X[28] <= 45.0\ngini = 0.266\nsamples = 19\nvalue = [3, 16, 0]"] ;
617 -> 618 ;
619 [label="gini = 0.0\nsamples = 13\nvalue = [0, 13, 0]"] ;
618 -> 619 ;
620 [label="X[19] <= 43.5\ngini = 0.5\nsamples = 6\nvalue = [3, 3, 0]"] ;
618 -> 620 ;
621 [label="gini = 0.0\nsamples = 3\nvalue = [3, 0, 0]"] ;
620 -> 621 ;
622 [label="gini = 0.0\nsamples = 3\nvalue = [0, 3, 0]"] ;
620 -> 622 ;
623 [label="X[18] <= 45.0\ngini = 0.491\nsamples = 23\nvalue = [13, 10, 0]"] ;
617 -> 623 ;
624 [label="X[20] <= 41.5\ngini = 0.375\nsamples = 16\nvalue = [12, 4, 0]"] ;
623 -> 624 ;
625 [label="gini = 0.0\nsamples = 3\nvalue = [0, 3, 0]"] ;
624 -> 625 ;
626 [label="X[20] <= 56.5\ngini = 0.142\nsamples = 13\nvalue = [12, 1, 0]"] ;
624 -> 626 ;
627 [label="gini = 0.0\nsamples = 12\nvalue = [12, 0, 0]"] ;
626 -> 627 ;
628 [label="gini = 0.0\nsamples = 1\nvalue = [0, 1, 0]"] ;
626 -> 628 ;
629 [label="X[31] <= 34.5\ngini = 0.245\nsamples = 7\nvalue = [1, 6, 0]"] ;
623 -> 629 ;
630 [label="gini = 0.0\nsamples = 1\nvalue = [1, 0, 0]"] ;
629 -> 630 ;
631 [label="gini = 0.0\nsamples = 6\nvalue = [0, 6, 0]"] ;
629 -> 631 ;
632 [label="X[0] <= 27.5\ngini = 0.474\nsamples = 192\nvalue = [74, 118, 0]"] ;
584 -> 632 ;
633 [label="X[7] <= 59.5\ngini = 0.117\nsamples = 16\nvalue = [1, 15, 0]"] ;
632 -> 633 ;
634 [label="gini = 0.0\nsamples = 15\nvalue = [0, 15, 0]"] ;
633 -> 634 ;
635 [label="gini = 0.0\nsamples = 1\nvalue = [1, 0, 0]"] ;
633 -> 635 ;
636 [label="X[29] <= 57.0\ngini = 0.485\nsamples = 176\nvalue = [73, 103, 0]"] ;
632 -> 636 ;
637 [label="X[22] <= 45.0\ngini = 0.475\nsamples = 162\nvalue = [63, 99, 0]"] ;
636 -> 637 ;
638 [label="X[14] <= 43.5\ngini = 0.5\nsamples = 80\nvalue = [40, 40, 0]"] ;
637 -> 638 ;
639 [label="X[19] <= 49.0\ngini = 0.465\nsamples = 57\nvalue = [21, 36, 0]"] ;
638 -> 639 ;
640 [label="X[31] <= 45.0\ngini = 0.405\nsamples = 46\nvalue = [13, 33, 0]"] ;
639 -> 640 ;
641 [label="X[37] <= 38.5\ngini = 0.375\nsamples = 44\nvalue = [11, 33, 0]"] ;
640 -> 641 ;
642 [label="X[24] <= 41.5\ngini = 0.48\nsamples = 20\nvalue = [8, 12, 0]"] ;
641 -> 642 ;
643 [label="gini = 0.0\nsamples = 4\nvalue = [4, 0, 0]"] ;
642 -> 643 ;
644 [label="X[17] <= 42.5\ngini = 0.375\nsamples = 16\nvalue = [4, 12, 0]"] ;
642 -> 644 ;
645 [label="gini = 0.0\nsamples = 2\nvalue = [2, 0, 0]"] ;
644 -> 645 ;
646 [label="X[3] <= 51.0\ngini = 0.245\nsamples = 14\nvalue = [2, 12, 0]"] ;
644 -> 646 ;
647 [label="X[6] <= 26.5\ngini = 0.142\nsamples = 13\nvalue = [1, 12, 0]"] ;
646 -> 647 ;
648 [label="X[19] <= 41.0\ngini = 0.444\nsamples = 3\nvalue = [1, 2, 0]"] ;
647 -> 648 ;
649 [label="gini = 0.0\nsamples = 2\nvalue = [0, 2, 0]"] ;
648 -> 649 ;
650 [label="gini = 0.0\nsamples = 1\nvalue = [1, 0, 0]"] ;
648 -> 650 ;
651 [label="gini = 0.0\nsamples = 10\nvalue = [0, 10, 0]"] ;
647 -> 651 ;
652 [label="gini = 0.0\nsamples = 1\nvalue = [1, 0, 0]"] ;
646 -> 652 ;
653 [label="X[23] <= 39.5\ngini = 0.219\nsamples = 24\nvalue = [3, 21, 0]"] ;
641 -> 653 ;
654 [label="gini = 0.0\nsamples = 18\nvalue = [0, 18, 0]"] ;
653 -> 654 ;
655 [label="X[13] <= 39.5\ngini = 0.5\nsamples = 6\nvalue = [3, 3, 0]"] ;
653 -> 655 ;
656 [label="gini = 0.0\nsamples = 3\nvalue = [3, 0, 0]"] ;
655 -> 656 ;
657 [label="gini = 0.0\nsamples = 3\nvalue = [0, 3, 0]"] ;
655 -> 657 ;
658 [label="gini = 0.0\nsamples = 2\nvalue = [2, 0, 0]"] ;
640 -> 658 ;
659 [label="X[19] <= 54.0\ngini = 0.397\nsamples = 11\nvalue = [8, 3, 0]"] ;
639 -> 659 ;
660 [label="gini = 0.0\nsamples = 7\nvalue = [7, 0, 0]"] ;
659 -> 660 ;
661 [label="X[33] <= 55.5\ngini = 0.375\nsamples = 4\nvalue = [1, 3, 0]"] ;
659 -> 661 ;
662 [label="gini = 0.0\nsamples = 3\nvalue = [0, 3, 0]"] ;
661 -> 662 ;
663 [label="gini = 0.0\nsamples = 1\nvalue = [1, 0, 0]"] ;
661 -> 663 ;
664 [label="X[12] <= 47.0\ngini = 0.287\nsamples = 23\nvalue = [19, 4, 0]"] ;
638 -> 664 ;
665 [label="X[30] <= 42.5\ngini = 0.5\nsamples = 8\nvalue = [4, 4, 0]"] ;
664 -> 665 ;
666 [label="gini = 0.0\nsamples = 4\nvalue = [4, 0, 0]"] ;
665 -> 666 ;
667 [label="gini = 0.0\nsamples = 4\nvalue = [0, 4, 0]"] ;
665 -> 667 ;
668 [label="gini = 0.0\nsamples = 15\nvalue = [15, 0, 0]"] ;
664 -> 668 ;
669 [label="X[28] <= 59.5\ngini = 0.404\nsamples = 82\nvalue = [23, 59, 0]"] ;
637 -> 669 ;
670 [label="X[18] <= 51.5\ngini = 0.378\nsamples = 79\nvalue = [20, 59, 0]"] ;
669 -> 670 ;
671 [label="X[21] <= 49.0\ngini = 0.464\nsamples = 41\nvalue = [15, 26, 0]"] ;
670 -> 671 ;
672 [label="X[30] <= 45.0\ngini = 0.198\nsamples = 18\nvalue = [2, 16, 0]"] ;
671 -> 672 ;
673 [label="X[28] <= 38.0\ngini = 0.444\nsamples = 3\nvalue = [2, 1, 0]"] ;
672 -> 673 ;
674 [label="gini = 0.0\nsamples = 1\nvalue = [0, 1, 0]"] ;
673 -> 674 ;
675 [label="gini = 0.0\nsamples = 2\nvalue = [2, 0, 0]"] ;
673 -> 675 ;
676 [label="gini = 0.0\nsamples = 15\nvalue = [0, 15, 0]"] ;
672 -> 676 ;
677 [label="X[25] <= 51.5\ngini = 0.491\nsamples = 23\nvalue = [13, 10, 0]"] ;
671 -> 677 ;
678 [label="X[31] <= 40.5\ngini = 0.415\nsamples = 17\nvalue = [12, 5, 0]"] ;
677 -> 678 ;
679 [label="gini = 0.0\nsamples = 2\nvalue = [0, 2, 0]"] ;
678 -> 679 ;
680 [label="X[17] <= 46.5\ngini = 0.32\nsamples = 15\nvalue = [12, 3, 0]"] ;
678 -> 680 ;
681 [label="X[12] <= 52.5\ngini = 0.444\nsamples = 3\nvalue = [1, 2, 0]"] ;
680 -> 681 ;
682 [label="gini = 0.0\nsamples = 2\nvalue = [0, 2, 0]"] ;
681 -> 682 ;
683 [label="gini = 0.0\nsamples = 1\nvalue = [1, 0, 0]"] ;
681 -> 683 ;
684 [label="X[27] <= 53.0\ngini = 0.153\nsamples = 12\nvalue = [11, 1, 0]"] ;
680 -> 684 ;
685 [label="gini = 0.0\nsamples = 11\nvalue = [11, 0, 0]"] ;
684 -> 685 ;
686 [label="gini = 0.0\nsamples = 1\nvalue = [0, 1, 0]"] ;
684 -> 686 ;
687 [label="X[15] <= 46.5\ngini = 0.278\nsamples = 6\nvalue = [1, 5, 0]"] ;
677 -> 687 ;
688 [label="gini = 0.0\nsamples = 1\nvalue = [1, 0, 0]"] ;
687 -> 688 ;
689 [label="gini = 0.0\nsamples = 5\nvalue = [0, 5, 0]"] ;
687 -> 689 ;
690 [label="X[5] <= 49.5\ngini = 0.229\nsamples = 38\nvalue = [5, 33, 0]"] ;
670 -> 690 ;
691 [label="gini = 0.0\nsamples = 1\nvalue = [1, 0, 0]"] ;
690 -> 691 ;
692 [label="X[19] <= 72.5\ngini = 0.193\nsamples = 37\nvalue = [4, 33, 0]"] ;
690 -> 692 ;
693 [label="X[28] <= 57.0\ngini = 0.153\nsamples = 36\nvalue = [3, 33, 0]"] ;
692 -> 693 ;
694 [label="X[21] <= 47.5\ngini = 0.064\nsamples = 30\nvalue = [1, 29, 0]"] ;
693 -> 694 ;
695 [label="X[8] <= 66.0\ngini = 0.444\nsamples = 3\nvalue = [1, 2, 0]"] ;
694 -> 695 ;
696 [label="gini = 0.0\nsamples = 2\nvalue = [0, 2, 0]"] ;
695 -> 696 ;
697 [label="gini = 0.0\nsamples = 1\nvalue = [1, 0, 0]"] ;
695 -> 697 ;
698 [label="gini = 0.0\nsamples = 27\nvalue = [0, 27, 0]"] ;
694 -> 698 ;
699 [label="X[1] <= 60.5\ngini = 0.444\nsamples = 6\nvalue = [2, 4, 0]"] ;
693 -> 699 ;
700 [label="gini = 0.0\nsamples = 2\nvalue = [2, 0, 0]"] ;
699 -> 700 ;
701 [label="gini = 0.0\nsamples = 4\nvalue = [0, 4, 0]"] ;
699 -> 701 ;
702 [label="gini = 0.0\nsamples = 1\nvalue = [1, 0, 0]"] ;
692 -> 702 ;
703 [label="gini = 0.0\nsamples = 3\nvalue = [3, 0, 0]"] ;
669 -> 703 ;
704 [label="X[1] <= 55.0\ngini = 0.408\nsamples = 14\nvalue = [10, 4, 0]"] ;
636 -> 704 ;
705 [label="gini = 0.0\nsamples = 7\nvalue = [7, 0, 0]"] ;
704 -> 705 ;
706 [label="X[23] <= 59.5\ngini = 0.49\nsamples = 7\nvalue = [3, 4, 0]"] ;
704 -> 706 ;
707 [label="gini = 0.0\nsamples = 3\nvalue = [0, 3, 0]"] ;
706 -> 707 ;
708 [label="X[7] <= 58.0\ngini = 0.375\nsamples = 4\nvalue = [3, 1, 0]"] ;
706 -> 708 ;
709 [label="gini = 0.0\nsamples = 3\nvalue = [3, 0, 0]"] ;
708 -> 709 ;
710 [label="gini = 0.0\nsamples = 1\nvalue = [0, 1, 0]"] ;
708 -> 710 ;
711 [label="X[16] <= 122.5\ngini = 0.245\nsamples = 7\nvalue = [6, 1, 0]"] ;
21 -> 711 ;
712 [label="gini = 0.0\nsamples = 6\nvalue = [6, 0, 0]"] ;
711 -> 712 ;
713 [label="gini = 0.0\nsamples = 1\nvalue = [0, 1, 0]"] ;
711 -> 713 ;
714 [label="gini = 0.0\nsamples = 9\nvalue = [0, 9, 0]"] ;
20 -> 714 ;
715 [label="gini = 0.0\nsamples = 11\nvalue = [0, 11, 0]"] ;
19 -> 715 ;
716 [label="gini = 0.0\nsamples = 6\nvalue = [6, 0, 0]"] ;
18 -> 716 ;
717 [label="X[37] <= 6.0\ngini = 0.153\nsamples = 12\nvalue = [1, 11, 0]"] ;
17 -> 717 ;
718 [label="gini = 0.0\nsamples = 1\nvalue = [1, 0, 0]"] ;
717 -> 718 ;
719 [label="gini = 0.0\nsamples = 11\nvalue = [0, 11, 0]"] ;
717 -> 719 ;
720 [label="gini = 0.0\nsamples = 5\nvalue = [5, 0, 0]"] ;
16 -> 720 ;
721 [label="X[9] <= 109.5\ngini = 0.32\nsamples = 10\nvalue = [8, 2, 0]"] ;
15 -> 721 ;
722 [label="gini = 0.0\nsamples = 8\nvalue = [8, 0, 0]"] ;
721 -> 722 ;
723 [label="gini = 0.0\nsamples = 2\nvalue = [0, 2, 0]"] ;
721 -> 723 ;
724 [label="gini = 0.0\nsamples = 7\nvalue = [0, 7, 0]"] ;
14 -> 724 ;
725 [label="X[24] <= 79.0\ngini = 0.455\nsamples = 40\nvalue = [26, 14, 0]"] ;
13 -> 725 ;
726 [label="X[35] <= 32.5\ngini = 0.418\nsamples = 37\nvalue = [26, 11, 0]"] ;
725 -> 726 ;
727 [label="X[25] <= 14.5\ngini = 0.469\nsamples = 8\nvalue = [3, 5, 0]"] ;
726 -> 727 ;
728 [label="X[1] <= 2.0\ngini = 0.375\nsamples = 4\nvalue = [3, 1, 0]"] ;
727 -> 728 ;
729 [label="gini = 0.0\nsamples = 1\nvalue = [0, 1, 0]"] ;
728 -> 729 ;
730 [label="gini = 0.0\nsamples = 3\nvalue = [3, 0, 0]"] ;
728 -> 730 ;
731 [label="gini = 0.0\nsamples = 4\nvalue = [0, 4, 0]"] ;
727 -> 731 ;
732 [label="X[36] <= 51.0\ngini = 0.328\nsamples = 29\nvalue = [23, 6, 0]"] ;
726 -> 732 ;
733 [label="gini = 0.0\nsamples = 10\nvalue = [10, 0, 0]"] ;
732 -> 733 ;
734 [label="X[33] <= 57.0\ngini = 0.432\nsamples = 19\nvalue = [13, 6, 0]"] ;
732 -> 734 ;
735 [label="X[19] <= 52.5\ngini = 0.497\nsamples = 13\nvalue = [7, 6, 0]"] ;
734 -> 735 ;
736 [label="X[36] <= 53.0\ngini = 0.278\nsamples = 6\nvalue = [5, 1, 0]"] ;
735 -> 736 ;
737 [label="gini = 0.0\nsamples = 1\nvalue = [0, 1, 0]"] ;
736 -> 737 ;
738 [label="gini = 0.0\nsamples = 5\nvalue = [5, 0, 0]"] ;
736 -> 738 ;
739 [label="X[12] <= 90.0\ngini = 0.408\nsamples = 7\nvalue = [2, 5, 0]"] ;
735 -> 739 ;
740 [label="gini = 0.0\nsamples = 5\nvalue = [0, 5, 0]"] ;
739 -> 740 ;
741 [label="gini = 0.0\nsamples = 2\nvalue = [2, 0, 0]"] ;
739 -> 741 ;
742 [label="gini = 0.0\nsamples = 6\nvalue = [6, 0, 0]"] ;
734 -> 742 ;
743 [label="gini = 0.0\nsamples = 3\nvalue = [0, 3, 0]"] ;
725 -> 743 ;
744 [label="X[16] <= 90.5\ngini = 0.416\nsamples = 78\nvalue = [23, 55, 0]"] ;
12 -> 744 ;
745 [label="X[38] <= 66.0\ngini = 0.371\nsamples = 69\nvalue = [17, 52, 0]"] ;
744 -> 745 ;
746 [label="X[31] <= 49.5\ngini = 0.47\nsamples = 37\nvalue = [14, 23, 0]"] ;
745 -> 746 ;
747 [label="X[1] <= 25.0\ngini = 0.308\nsamples = 21\nvalue = [4, 17, 0]"] ;
746 -> 747 ;
748 [label="X[19] <= 71.5\ngini = 0.48\nsamples = 10\nvalue = [4, 6, 0]"] ;
747 -> 748 ;
749 [label="X[8] <= 26.5\ngini = 0.245\nsamples = 7\nvalue = [1, 6, 0]"] ;
748 -> 749 ;
750 [label="gini = 0.0\nsamples = 6\nvalue = [0, 6, 0]"] ;
749 -> 750 ;
751 [label="gini = 0.0\nsamples = 1\nvalue = [1, 0, 0]"] ;
749 -> 751 ;
752 [label="gini = 0.0\nsamples = 3\nvalue = [3, 0, 0]"] ;
748 -> 752 ;
753 [label="gini = 0.0\nsamples = 11\nvalue = [0, 11, 0]"] ;
747 -> 753 ;
754 [label="X[23] <= 71.5\ngini = 0.469\nsamples = 16\nvalue = [10, 6, 0]"] ;
746 -> 754 ;
755 [label="X[31] <= 58.5\ngini = 0.355\nsamples = 13\nvalue = [10, 3, 0]"] ;
754 -> 755 ;
756 [label="X[33] <= 36.0\ngini = 0.5\nsamples = 6\nvalue = [3, 3, 0]"] ;
755 -> 756 ;
757 [label="gini = 0.0\nsamples = 3\nvalue = [3, 0, 0]"] ;
756 -> 757 ;
758 [label="gini = 0.0\nsamples = 3\nvalue = [0, 3, 0]"] ;
756 -> 758 ;
759 [label="gini = 0.0\nsamples = 7\nvalue = [7, 0, 0]"] ;
755 -> 759 ;
760 [label="gini = 0.0\nsamples = 3\nvalue = [0, 3, 0]"] ;
754 -> 760 ;
761 [label="X[15] <= 134.5\ngini = 0.17\nsamples = 32\nvalue = [3, 29, 0]"] ;
745 -> 761 ;
762 [label="X[38] <= 150.5\ngini = 0.121\nsamples = 31\nvalue = [2, 29, 0]"] ;
761 -> 762 ;
763 [label="X[36] <= 66.0\ngini = 0.064\nsamples = 30\nvalue = [1, 29, 0]"] ;
762 -> 763 ;
764 [label="X[1] <= 60.0\ngini = 0.375\nsamples = 4\nvalue = [1, 3, 0]"] ;
763 -> 764 ;
765 [label="gini = 0.0\nsamples = 1\nvalue = [1, 0, 0]"] ;
764 -> 765 ;
766 [label="gini = 0.0\nsamples = 3\nvalue = [0, 3, 0]"] ;
764 -> 766 ;
767 [label="gini = 0.0\nsamples = 26\nvalue = [0, 26, 0]"] ;
763 -> 767 ;
768 [label="gini = 0.0\nsamples = 1\nvalue = [1, 0, 0]"] ;
762 -> 768 ;
769 [label="gini = 0.0\nsamples = 1\nvalue = [1, 0, 0]"] ;
761 -> 769 ;
770 [label="X[36] <= 70.5\ngini = 0.444\nsamples = 9\nvalue = [6, 3, 0]"] ;
744 -> 770 ;
771 [label="X[7] <= 97.5\ngini = 0.375\nsamples = 4\nvalue = [1, 3, 0]"] ;
770 -> 771 ;
772 [label="gini = 0.0\nsamples = 3\nvalue = [0, 3, 0]"] ;
771 -> 772 ;
773 [label="gini = 0.0\nsamples = 1\nvalue = [1, 0, 0]"] ;
771 -> 773 ;
774 [label="gini = 0.0\nsamples = 5\nvalue = [5, 0, 0]"] ;
770 -> 774 ;
775 [label="X[13] <= 112.5\ngini = 0.487\nsamples = 86\nvalue = [50, 36, 0]"] ;
11 -> 775 ;
776 [label="X[13] <= 21.0\ngini = 0.444\nsamples = 69\nvalue = [46, 23, 0]"] ;
775 -> 776 ;
777 [label="gini = 0.0\nsamples = 4\nvalue = [0, 4, 0]"] ;
776 -> 777 ;
778 [label="X[6] <= 39.5\ngini = 0.414\nsamples = 65\nvalue = [46, 19, 0]"] ;
776 -> 778 ;
779 [label="gini = 0.0\nsamples = 12\nvalue = [12, 0, 0]"] ;
778 -> 779 ;
780 [label="X[31] <= 27.0\ngini = 0.46\nsamples = 53\nvalue = [34, 19, 0]"] ;
778 -> 780 ;
781 [label="gini = 0.0\nsamples = 3\nvalue = [0, 3, 0]"] ;
780 -> 781 ;
782 [label="X[1] <= 71.5\ngini = 0.435\nsamples = 50\nvalue = [34, 16, 0]"] ;
780 -> 782 ;
783 [label="X[0] <= 63.5\ngini = 0.484\nsamples = 39\nvalue = [23, 16, 0]"] ;
782 -> 783 ;
784 [label="X[13] <= 55.5\ngini = 0.43\nsamples = 32\nvalue = [22, 10, 0]"] ;
783 -> 784 ;
785 [label="gini = 0.0\nsamples = 3\nvalue = [0, 3, 0]"] ;
784 -> 785 ;
786 [label="X[4] <= 90.0\ngini = 0.366\nsamples = 29\nvalue = [22, 7, 0]"] ;
784 -> 786 ;
787 [label="X[12] <= 102.0\ngini = 0.227\nsamples = 23\nvalue = [20, 3, 0]"] ;
786 -> 787 ;
788 [label="X[4] <= 29.5\ngini = 0.165\nsamples = 22\nvalue = [20, 2, 0]"] ;
787 -> 788 ;
789 [label="X[8] <= 4.5\ngini = 0.5\nsamples = 2\nvalue = [1, 1, 0]"] ;
788 -> 789 ;
790 [label="gini = 0.0\nsamples = 1\nvalue = [1, 0, 0]"] ;
789 -> 790 ;
791 [label="gini = 0.0\nsamples = 1\nvalue = [0, 1, 0]"] ;
789 -> 791 ;
792 [label="X[35] <= 52.5\ngini = 0.095\nsamples = 20\nvalue = [19, 1, 0]"] ;
788 -> 792 ;
793 [label="X[10] <= 34.5\ngini = 0.5\nsamples = 2\nvalue = [1, 1, 0]"] ;
792 -> 793 ;
794 [label="gini = 0.0\nsamples = 1\nvalue = [1, 0, 0]"] ;
793 -> 794 ;
795 [label="gini = 0.0\nsamples = 1\nvalue = [0, 1, 0]"] ;
793 -> 795 ;
796 [label="gini = 0.0\nsamples = 18\nvalue = [18, 0, 0]"] ;
792 -> 796 ;
797 [label="gini = 0.0\nsamples = 1\nvalue = [0, 1, 0]"] ;
787 -> 797 ;
798 [label="X[32] <= 3.5\ngini = 0.444\nsamples = 6\nvalue = [2, 4, 0]"] ;
786 -> 798 ;
799 [label="gini = 0.0\nsamples = 2\nvalue = [2, 0, 0]"] ;
798 -> 799 ;
800 [label="gini = 0.0\nsamples = 4\nvalue = [0, 4, 0]"] ;
798 -> 800 ;
801 [label="X[5] <= 85.0\ngini = 0.245\nsamples = 7\nvalue = [1, 6, 0]"] ;
783 -> 801 ;
802 [label="gini = 0.0\nsamples = 6\nvalue = [0, 6, 0]"] ;
801 -> 802 ;
803 [label="gini = 0.0\nsamples = 1\nvalue = [1, 0, 0]"] ;
801 -> 803 ;
804 [label="gini = 0.0\nsamples = 11\nvalue = [11, 0, 0]"] ;
782 -> 804 ;
805 [label="X[26] <= 47.5\ngini = 0.36\nsamples = 17\nvalue = [4, 13, 0]"] ;
775 -> 805 ;
806 [label="X[39] <= 90.0\ngini = 0.375\nsamples = 4\nvalue = [3, 1, 0]"] ;
805 -> 806 ;
807 [label="gini = 0.0\nsamples = 3\nvalue = [3, 0, 0]"] ;
806 -> 807 ;
808 [label="gini = 0.0\nsamples = 1\nvalue = [0, 1, 0]"] ;
806 -> 808 ;
809 [label="X[37] <= 123.5\ngini = 0.142\nsamples = 13\nvalue = [1, 12, 0]"] ;
805 -> 809 ;
810 [label="gini = 0.0\nsamples = 12\nvalue = [0, 12, 0]"] ;
809 -> 810 ;
811 [label="gini = 0.0\nsamples = 1\nvalue = [1, 0, 0]"] ;
809 -> 811 ;
812 [label="gini = 0.0\nsamples = 7\nvalue = [7, 0, 0]"] ;
10 -> 812 ;
813 [label="X[36] <= 110.0\ngini = 0.408\nsamples = 42\nvalue = [12, 30, 0]"] ;
9 -> 813 ;
814 [label="X[20] <= 136.5\ngini = 0.271\nsamples = 31\nvalue = [5, 26, 0]"] ;
813 -> 814 ;
815 [label="X[28] <= 47.5\ngini = 0.185\nsamples = 29\nvalue = [3, 26, 0]"] ;
814 -> 815 ;
816 [label="X[1] <= 62.5\ngini = 0.444\nsamples = 3\nvalue = [2, 1, 0]"] ;
815 -> 816 ;
817 [label="gini = 0.0\nsamples = 1\nvalue = [0, 1, 0]"] ;
816 -> 817 ;
818 [label="gini = 0.0\nsamples = 2\nvalue = [2, 0, 0]"] ;
816 -> 818 ;
819 [label="X[10] <= 58.5\ngini = 0.074\nsamples = 26\nvalue = [1, 25, 0]"] ;
815 -> 819 ;
820 [label="X[3] <= 29.5\ngini = 0.444\nsamples = 3\nvalue = [1, 2, 0]"] ;
819 -> 820 ;
821 [label="gini = 0.0\nsamples = 2\nvalue = [0, 2, 0]"] ;
820 -> 821 ;
822 [label="gini = 0.0\nsamples = 1\nvalue = [1, 0, 0]"] ;
820 -> 822 ;
823 [label="gini = 0.0\nsamples = 23\nvalue = [0, 23, 0]"] ;
819 -> 823 ;
824 [label="gini = 0.0\nsamples = 2\nvalue = [2, 0, 0]"] ;
814 -> 824 ;
825 [label="X[18] <= 141.5\ngini = 0.463\nsamples = 11\nvalue = [7, 4, 0]"] ;
813 -> 825 ;
826 [label="gini = 0.0\nsamples = 4\nvalue = [0, 4, 0]"] ;
825 -> 826 ;
827 [label="gini = 0.0\nsamples = 7\nvalue = [7, 0, 0]"] ;
825 -> 827 ;
828 [label="X[39] <= 50.0\ngini = 0.337\nsamples = 28\nvalue = [22, 6, 0]"] ;
8 -> 828 ;
829 [label="gini = 0.0\nsamples = 2\nvalue = [0, 2, 0]"] ;
828 -> 829 ;
830 [label="X[16] <= 106.0\ngini = 0.26\nsamples = 26\nvalue = [22, 4, 0]"] ;
828 -> 830 ;
831 [label="X[13] <= 31.5\ngini = 0.095\nsamples = 20\nvalue = [19, 1, 0]"] ;
830 -> 831 ;
832 [label="gini = 0.0\nsamples = 1\nvalue = [0, 1, 0]"] ;
831 -> 832 ;
833 [label="gini = 0.0\nsamples = 19\nvalue = [19, 0, 0]"] ;
831 -> 833 ;
834 [label="X[19] <= 136.5\ngini = 0.5\nsamples = 6\nvalue = [3, 3, 0]"] ;
830 -> 834 ;
835 [label="gini = 0.0\nsamples = 3\nvalue = [0, 3, 0]"] ;
834 -> 835 ;
836 [label="gini = 0.0\nsamples = 3\nvalue = [3, 0, 0]"] ;
834 -> 836 ;
837 [label="X[13] <= 87.5\ngini = 0.337\nsamples = 28\nvalue = [6, 22, 0]"] ;
7 -> 837 ;
838 [label="X[7] <= 2.5\ngini = 0.375\nsamples = 4\nvalue = [3, 1, 0]"] ;
837 -> 838 ;
839 [label="gini = 0.0\nsamples = 1\nvalue = [0, 1, 0]"] ;
838 -> 839 ;
840 [label="gini = 0.0\nsamples = 3\nvalue = [3, 0, 0]"] ;
838 -> 840 ;
841 [label="X[0] <= 43.5\ngini = 0.219\nsamples = 24\nvalue = [3, 21, 0]"] ;
837 -> 841 ;
842 [label="gini = 0.0\nsamples = 1\nvalue = [1, 0, 0]"] ;
841 -> 842 ;
843 [label="X[9] <= 177.0\ngini = 0.159\nsamples = 23\nvalue = [2, 21, 0]"] ;
841 -> 843 ;
844 [label="gini = 0.0\nsamples = 17\nvalue = [0, 17, 0]"] ;
843 -> 844 ;
845 [label="X[29] <= 168.0\ngini = 0.444\nsamples = 6\nvalue = [2, 4, 0]"] ;
843 -> 845 ;
846 [label="X[37] <= 93.0\ngini = 0.444\nsamples = 3\nvalue = [2, 1, 0]"] ;
845 -> 846 ;
847 [label="gini = 0.0\nsamples = 1\nvalue = [0, 1, 0]"] ;
846 -> 847 ;
848 [label="gini = 0.0\nsamples = 2\nvalue = [2, 0, 0]"] ;
846 -> 848 ;
849 [label="gini = 0.0\nsamples = 3\nvalue = [0, 3, 0]"] ;
845 -> 849 ;
850 [label="gini = 0.0\nsamples = 5\nvalue = [5, 0, 0]"] ;
6 -> 850 ;
851 [label="X[15] <= 248.0\ngini = 0.117\nsamples = 16\nvalue = [1, 15, 0]"] ;
5 -> 851 ;
852 [label="gini = 0.0\nsamples = 14\nvalue = [0, 14, 0]"] ;
851 -> 852 ;
853 [label="X[35] <= 125.5\ngini = 0.5\nsamples = 2\nvalue = [1, 1, 0]"] ;
851 -> 853 ;
854 [label="gini = 0.0\nsamples = 1\nvalue = [0, 1, 0]"] ;
853 -> 854 ;
855 [label="gini = 0.0\nsamples = 1\nvalue = [1, 0, 0]"] ;
853 -> 855 ;
856 [label="X[8] <= 209.0\ngini = 0.417\nsamples = 27\nvalue = [19, 8, 0]"] ;
4 -> 856 ;
857 [label="gini = 0.0\nsamples = 9\nvalue = [9, 0, 0]"] ;
856 -> 857 ;
858 [label="X[25] <= 199.0\ngini = 0.494\nsamples = 18\nvalue = [10, 8, 0]"] ;
856 -> 858 ;
859 [label="X[18] <= 207.0\ngini = 0.375\nsamples = 8\nvalue = [2, 6, 0]"] ;
858 -> 859 ;
860 [label="gini = 0.0\nsamples = 5\nvalue = [0, 5, 0]"] ;
859 -> 860 ;
861 [label="X[35] <= 151.5\ngini = 0.444\nsamples = 3\nvalue = [2, 1, 0]"] ;
859 -> 861 ;
862 [label="gini = 0.0\nsamples = 2\nvalue = [2, 0, 0]"] ;
861 -> 862 ;
863 [label="gini = 0.0\nsamples = 1\nvalue = [0, 1, 0]"] ;
861 -> 863 ;
864 [label="X[39] <= 128.0\ngini = 0.32\nsamples = 10\nvalue = [8, 2, 0]"] ;
858 -> 864 ;
865 [label="gini = 0.0\nsamples = 7\nvalue = [7, 0, 0]"] ;
864 -> 865 ;
866 [label="X[32] <= 135.5\ngini = 0.444\nsamples = 3\nvalue = [1, 2, 0]"] ;
864 -> 866 ;
867 [label="gini = 0.0\nsamples = 1\nvalue = [1, 0, 0]"] ;
866 -> 867 ;
868 [label="gini = 0.0\nsamples = 2\nvalue = [0, 2, 0]"] ;
866 -> 868 ;
869 [label="X[32] <= 241.0\ngini = 0.165\nsamples = 11\nvalue = [1, 10, 0]"] ;
3 -> 869 ;
870 [label="gini = 0.0\nsamples = 10\nvalue = [0, 10, 0]"] ;
869 -> 870 ;
871 [label="gini = 0.0\nsamples = 1\nvalue = [1, 0, 0]"] ;
869 -> 871 ;
872 [label="X[9] <= 228.0\ngini = 0.403\nsamples = 25\nvalue = [18, 7, 0]"] ;
2 -> 872 ;
873 [label="X[26] <= 245.5\ngini = 0.208\nsamples = 17\nvalue = [15, 2, 0]"] ;
872 -> 873 ;
874 [label="gini = 0.0\nsamples = 13\nvalue = [13, 0, 0]"] ;
873 -> 874 ;
875 [label="X[20] <= 247.0\ngini = 0.5\nsamples = 4\nvalue = [2, 2, 0]"] ;
873 -> 875 ;
876 [label="gini = 0.0\nsamples = 2\nvalue = [0, 2, 0]"] ;
875 -> 876 ;
877 [label="gini = 0.0\nsamples = 2\nvalue = [2, 0, 0]"] ;
875 -> 877 ;
878 [label="X[24] <= 240.5\ngini = 0.469\nsamples = 8\nvalue = [3, 5, 0]"] ;
872 -> 878 ;
879 [label="gini = 0.0\nsamples = 4\nvalue = [0, 4, 0]"] ;
878 -> 879 ;
880 [label="X[23] <= 57.5\ngini = 0.375\nsamples = 4\nvalue = [3, 1, 0]"] ;
878 -> 880 ;
881 [label="gini = 0.0\nsamples = 1\nvalue = [0, 1, 0]"] ;
880 -> 881 ;
882 [label="gini = 0.0\nsamples = 3\nvalue = [3, 0, 0]"] ;
880 -> 882 ;
883 [label="X[14] <= 250.5\ngini = 0.305\nsamples = 16\nvalue = [3, 13, 0]"] ;
1 -> 883 ;
884 [label="X[12] <= 251.5\ngini = 0.231\nsamples = 15\nvalue = [2, 13, 0]"] ;
883 -> 884 ;
885 [label="X[24] <= 250.5\ngini = 0.133\nsamples = 14\nvalue = [1, 13, 0]"] ;
884 -> 885 ;
886 [label="gini = 0.0\nsamples = 13\nvalue = [0, 13, 0]"] ;
885 -> 886 ;
887 [label="gini = 0.0\nsamples = 1\nvalue = [1, 0, 0]"] ;
885 -> 887 ;
888 [label="gini = 0.0\nsamples = 1\nvalue = [1, 0, 0]"] ;
884 -> 888 ;
889 [label="gini = 0.0\nsamples = 1\nvalue = [1, 0, 0]"] ;
883 -> 889 ;
890 [label="gini = 0.0\nsamples = 5\nvalue = [5, 0, 0]"] ;
0 -> 890 [labeldistance=2.5, labelangle=-45, headlabel="False"] ;
}
